0.2213636853654201 0.17617746767283654 -0.36619405782275644 -0.35332011349178893 -0.029490232808854457 0.41973040633323916 -0.32816135694150256 -0.07792275271583636 -0.0154119394484002 -0.298044728705539 
-0.09100972530011492 0.3444595177624083 0.30185787945362597 -0.2189602466936292 0.004641236614073037 -0.20556432410661618 -0.07682069744767205 -0.21177237204099725 -0.3914518179209868 0.19809438259186393 
-0.273891039300174 0.44409317742650256 0.2761022884526641 0.4916732162856334 -0.1367820905642551 0.34726987437851503 0.45056608887265837 -0.15609623320714586 0.4646316161891083 0.18891466731581705 
-0.2534511069523476 -0.45688032748399515 0.18853708017161544 0.08179919435278261 0.05898784033994053 0.04874592728647531 0.2126524697223649 0.4445578489701832 -0.4986315259884897 0.4445742545003942 
0.10807999848715698 0.4200705716408086 -0.4515548188053625 0.2350971260948419 0.3899685896498935 0.3793224872201 0.065058154495091 0.33694657270702616 -0.0908473824745374 0.4420079054008197 
0.44010454709556446 0.3958114017869152 -0.1006065490486161 -0.11041818647107726 0.35183140841143457 -0.27566308828634367 -0.05183604109026818 -0.11353503731502324 0.3516782980545592 -0.3393606391099704 
0.21645165116269216 0.24794873060381484 0.33306669120110755 -0.4063257296938225 -0.1810652697977173 0.4983882480364342 -0.06812882541515897 -0.3835863574058861 -0.2792249408062848 -0.24717051134415624 
-0.25240665245263616 -0.006392994838134269 -0.06148849211625329 -0.24224922900242774 0.4970603652278476 -0.130082712513227 -0.2485437811346084 0.26295613972601206 0.20905469130464482 -0.2147252564471962 
-0.4587965366450666 0.49343868944856195 0.013572264064704576 0.14629900177124866 -0.4602390349172889 -0.08066704420289261 -0.19517866739027223 0.10716521437896054 0.2577383769599033 -0.3949660051137226 
0.23815098985547933 0.3550420454555274 0.20222598837253114 0.1657737229319971 0.4583869393717539 -0.13230927390815928 -0.22273344065992606 0.06106255248591741 -0.09881407798671837 -0.29015645044648186 
-0.20269688655868215 0.23093563899823838 -0.32579731650978216 0.3494307771982615 0.23040196126630014 -0.08315797502494396 0.1002469059263047 -0.22032922587076376 -0.4698000240519239 -0.11787081190101235 
-0.1357540828774598 -0.3948131572025752 -0.3903135733469833 -0.42504057022876135 0.21046171450097287 0.10353471252545181 0.26934973105791554 0.028291340561386626 0.07671748853435811 0.3991868647623103 
0.32773410161223404 0.40196371397505243 0.3811132007003977 -0.043961430072628135 -0.45167680127897425 -0.28606466133252934 -0.06920469025684975 0.40063046407712183 0.15864895614211694 0.2714050868888865 
-0.36772745355157577 0.1562860267385449 -0.23659959045945053 0.47304903223670697 0.07426241071511289 0.17324507207925122 -0.07097641628632054 0.30894666396730014 0.4266148424901642 -0.3470700667375555 
0.22881457723079252 -0.3572241203334052 0.37916038878091507 0.005608257505573485 -0.19685513550891665 0.41523575128899853 0.24923902654067664 0.44013372009345014 0.22425789790627398 0.49175088880775164 
-0.2944167833019561 0.4325089787883075 -0.36470453701881955 0.34212052486516725 0.0008507645622093115 -0.2719251349462959 -0.044913471710959586 -0.07348710699829185 0.10958344533192971 -0.1518828425537435 
0.2654569598109309 0.28016951772104437 0.3564774398624806 0.46465711224049655 -0.3286347663673109 -0.011551907786367558 -0.30923446380405 0.3358395686177537 -0.20301639965942891 -0.13845693051641958 
-0.16963796453452984 0.11617835493117712 0.4538574829649171 -0.4353926065825198 0.3398794270621194 -0.3505303985033326 -0.2838223911630399 0.01628218623422965 0.20421571038212658 0.3717994102221257 
-0.27818875280776006 -0.34277011645617794 0.06941991605227517 -0.18819470614983888 0.12026732313571853 0.31843564206862013 -0.4631421968038777 -0.35996144011797043 0.33577206324558617 0.38629329920031474 
0.28163222525862514 -0.0018861505248494944 0.3504559069371114 0.19030565214628883 -0.4985580275112552 0.1432869213320277 -0.3758170503460638 -0.38339366500728717 0.346060555754348 -0.11943514391271459 
0.15401471093187466 0.07373431661256986 0.42236241694135784 -0.09264866815431602 -0.4420779558837349 0.13452973442555088 -0.35248655292032144 -0.21716643261428167 0.30609231821399036 -0.4173576250396444 
-0.0024850322768541506 0.08972317144985896 -0.4935928684375735 0.3540992756928997 -0.22228586129321393 0.3939360763566587 -0.10920034437077196 -0.23778876400954463 -0.32371558570542214 0.2960054828541485 
-0.38580296392682223 0.19904613092990983 0.2942423793163234 0.24741887623562298 0.45863151343407416 0.2905375000148975 -0.2465939482306177 -0.20564293242519274 -0.14778106982418476 0.3108723166065077 
-0.29616515961886586 -0.3353705257659737 0.06557756079942381 -0.49359036041229254 0.27099703641959483 0.012448647993329957 0.4877863671961107 -0.08423297451055176 0.39952865588922476 0.3619087591548461 
0.25519464003628023 0.42345122451064304 -0.14198481234224508 -0.30579636505565794 0.0412729580688935 -0.2915865136194368 -0.49009603970972054 0.0014027776372948523 0.3361469594238499 -0.12161241243562972 
0.3691980971293079 0.2948077005392095 0.25403695155495953 -0.28071839995075243 -0.2561853187663899 0.10814768261166567 0.3247696462201906 0.40900571822911164 0.21372382830385625 0.3877501774185486 
-0.37237146770893714 0.4016613023015102 0.3275101432246207 0.49040334493382365 0.38551221087291104 -0.15315877580858572 0.3659025775293814 -0.4250183116690807 0.28920823285126007 -0.27700887770089466 
-0.20620666830186982 -0.18263822028479293 -0.42524626988647896 -0.31250941764704354 -0.4373555967777724 -0.2476995011570004 -0.2015840421291345 -0.3515136908015799 -0.1084496900085247 0.39784313732221316 
0.49421398235373315 -0.14047102546741524 0.09196803938277212 0.1855992232374478 0.036104252833076236 0.15212550023748006 0.4761958447542479 -0.1640699090727963 -0.054732475925725374 0.12042318626012719 
0.3247273251040409 0.3008028710202584 -0.4969833350909463 -0.07238753430092301 -0.17160279142332094 0.2199313771579426 0.017045349448154605 0.1919380875754523 -0.3568273713413713 -0.07788089345823865 
0.44544017436424976 -0.3725914679504815 -0.3878514468628479 0.018961613925238964 -0.17822456159030284 -0.4061276659675147 -0.3713224944586744 0.48921681292948616 0.1609594080214258 0.3724042966761129 
-0.45569400611967703 -0.22486962660046927 0.07222929514475726 0.20943727516397032 0.4218116778440226 -0.35056852957389006 0.2537460330205705 -0.04559945504233794 -0.29683200203116183 0.3588181005633975 
-0.2643740614167187 0.17052130146154604 -0.2185308475373136 0.4026558185763833 0.0030777916543459002 0.2728501446521025 -0.15482160610735352 -0.04701079635585816 -0.026441349701048496 -0.37888194018180205 
-0.01637700641443978 -0.2898210854330873 0.32867017714469765 0.22541738455933402 0.31178844748814677 -0.39048527168699737 0.4582604036277146 -0.2690637868183193 -0.25859630499034747 0.4983013782209057 
0.42028826390084634 0.03298929480707281 -0.011815374480737518 0.47152547554750945 0.02779382243136072 -0.44916078359841677 -0.10341658636794468 0.3978403510442245 -0.32233150738584204 0.4581480337799506 
-0.025529308051865977 -0.3780958954039444 0.10914685883998394 0.4782696753700494 -0.2640179717398086 -0.05985773590799737 0.20503867297207834 0.3387728503713572 0.02135383864350211 -0.32513731847403193 
0.3710561297428322 0.44189606546386306 -0.15731101573194595 0.4147708937829228 -0.49524572224156177 -0.2748684820580893 -0.06827759564042668 -0.43391313000192666 0.298185284964129 -0.20840991003331796 
-0.045153814825179286 -0.28201216833572623 0.1864322001822454 -0.18036799813858453 0.3890575115381373 -0.23047358005194765 0.1317603371716129 -0.44625617884016183 -0.05423364001448639 -0.4352864603968463 
-0.05114367671658275 0.38397561438502786 -0.182512919738008 0.29934840511958943 -0.25682597322233813 -0.3557246303529908 -0.448434130052358 0.12319142242120758 0.10562303019305552 -0.04486331410227752 
0.2054266373616235 -0.3547450583170415 0.0254085684495631 0.3450373201780747 0.40506904423620527 -0.19816747629938922 0.4863510237427379 -0.01847675335849694 -0.4221264248365772 0.008444894951016116 
0.41529478821391563 -0.13920297184911845 -0.30018258790255065 -0.2928589086328227 -0.10637395443749963 0.13209034684354787 0.2718835125608951 -0.20343336658607492 0.43910467224014654 -0.0502556586132069 
0.04254333439005456 0.22283179921802035 -0.26365121580135803 -0.38429153568902424 0.13537206647635644 -0.07358868538412396 -0.4003457131047351 0.35638753023459885 -0.013304611825880974 -0.18339371150287315 
0.07386002433691796 -0.03133273177432638 0.22459377817495274 0.2211027202029665 0.3570677085759464 0.3774751536682539 -0.4664777708367802 -0.3752138381292264 0.3653101014190001 -0.27483936727270486 
-0.000428467042397283 -0.14455831832903757 -0.0017073226258437044 -0.396463849193821 -0.4109798306865398 0.40226096189526056 0.4073902679488187 -0.41348570688940656 0.06686420666613879 0.42770197972375695 
0.08294661405946728 0.282038510985096 -0.04286118522124959 -0.2944761924465987 0.3670332245391132 -0.3556607284029969 -0.3231125843961056 0.03612351503131423 -0.3832936373926424 0.43517400202107526 
0.4764665077879712 0.3096471836835786 -0.014925009819023874 0.47552135652882954 0.22956856771147352 0.04583571413055085 -0.020646914329063078 0.054783900224800675 -0.43851186830457883 -0.3460953482921843 
0.2760323477236947 0.41064516986154026 0.4918667081036189 -0.1288472032113314 0.3344105225402781 -0.37000012091128215 -0.47752051458967343 -0.2202258632395096 -0.00473498480378052 -0.34104289552047456 
