0.12739257268021428 0.033675654067934255 0.0011573239848493623 -0.010969027599662652 -0.16313801320647642 -0.09915436703650406 0.465622276665089 0.28542917249108707 -0.3170213970238736 0.17824521402694793 
-0.05288812276288683 0.27704836449463777 0.24265384782957822 -0.3379892176614827 0.19974155711539257 0.14245769948066017 0.16954475342610742 0.17980091790877037 -0.4155249532403288 0.2312841325131741 
0.31077655141945365 -0.17936698415000485 0.22110081378735078 0.1687137595109112 0.118596577616925 0.3405049885933608 -0.12515790351770406 -0.2951732389735689 0.3796958803621351 -0.17251181753514708 
0.4849522431983927 -0.10617485024653486 0.06695389260572292 0.10444737624258982 -0.40567855351130816 0.22438424823099637 -0.19923848045339826 -0.28132572472558454 0.3891174327952016 0.4706902255740917 
0.45731353179422046 0.3911631075157549 -0.127034660822899 0.49291566039623225 -0.06432025502450188 0.09536194316816975 0.3787285856855161 -0.30362543279642934 0.24276774776607124 -0.1023681459036726 
-0.38018356356258975 -0.19702354672626532 0.39450509525975364 0.017486230145298598 -0.4678176217791187 0.23493845272431546 -0.09150409445197316 -0.08893143472418674 -0.3490732722826526 -0.3004574218195195 
0.35575620358299487 0.1820153782824273 0.04133846199072744 0.30675956169327745 -0.22436392283913176 0.34112850613215573 0.4024206928463814 0.15014648525075402 -0.1544939639018854 0.19447681181667564 
0.4435924897030762 0.09934909354714494 -0.1372486396571233 -0.04645651400304751 -0.09825470445912499 0.43923435793450316 -0.13399584767267814 0.12681561479090542 0.41080650544956065 0.1505682732552075 
0.11435746313358675 -0.19141096848060501 0.27205226870123767 0.08101442370198453 -0.3882024045337287 -0.3947846292408018 0.18004928291995115 0.4631550085687719 -0.25976139574841484 -0.14451196826590618 
-0.1597108319903362 0.37226241785191816 0.3431424252254114 -0.42275065775834975 -0.4441270620466543 0.2601919198157826 0.10708014172353242 0.282903540770145 -0.4163640852972369 -0.24883888844750934 
0.19682070246512792 -0.011236322058118609 0.3560193862937113 0.02936697612692595 -0.08013734866299514 0.28075657573624785 -0.40577134874297777 -0.2951643175219866 -0.20662645843420024 0.04089551446577314 
-0.3534297359270714 -0.3581082171343683 0.4209304034147169 -0.00601102777575129 0.29230248629332534 0.46169071386331617 -0.10543290968287107 0.06760586539897742 -0.03337383676146253 0.4268011529457533 
0.26014672853139814 0.3213451293214516 0.42527843907346613 -0.4014655274524682 0.2577985244048264 -0.2836993623783379 0.4436365255283106 0.4392799516282899 -0.3389629267295124 -0.39706084758372673 
-0.09358811307126699 -0.24859225749566985 -0.13836833021204076 -0.3656204202543558 -0.22076122024097644 0.401708374320209 -0.3949402518040814 -0.08842429620500569 -0.29989153509842886 0.41142545318641727 
-0.09825605327901996 -0.4066907277332131 -0.08367892413839316 0.47229170820026645 0.09585689064624374 -0.0907461449116443 -0.19366499821993832 -0.03639537116035472 0.420773237356434 -0.17529453304151157 
-0.34770514150176857 0.15649529343346955 0.33956362653883565 0.40815522485826944 0.13070254221322156 -0.46117436128783884 -0.11523404312031253 -0.19436468732138365 0.007836551794791063 -0.051324570028551786 
0.06273101608691621 0.03603349350463021 0.05471612034078686 -0.2954111331556408 -0.3480990111880228 -0.18817786424193123 0.0461842674508606 0.13642994888405974 -0.1397705365848868 -0.396793367719775 
-0.483871732531786 0.3137656797786695 -0.4915886452698544 0.4554886661864764 -0.360623876082606 -0.388392594887909 -0.17934950155786092 0.10372600423488348 -0.4931979135658779 0.12784126813526475 
0.42759827107984616 0.01886683595352979 -0.23236799130736197 -0.026012640093478142 -0.15160410363816962 -0.020219841369977308 0.07316736810880325 0.08039028737640723 -0.1661591856727944 -0.4314738372910171 
0.3722738750142604 0.29901952760720635 0.3323718065543583 -0.13447063248142177 -0.17731939610623265 0.13275357205420615 -0.34016709762581654 0.2014895073421046 0.26082893995162887 -0.055109750524886196 
-0.2992733668951896 -0.1475899114284588 -0.3863485083030809 -0.3451896891560564 0.4408519578440988 0.32266967734781876 0.05628288135926664 0.0214391449807766 0.49261908520610065 0.1860025989575335 
0.2890719243949422 -0.038472045240268475 0.2537536042779545 -0.36431005612352474 -0.14815299250391045 -0.3554607232609462 -0.441716524305606 -0.06606184412994462 0.3987597665551223 -0.14925361186806665 
0.3852706185397546 0.13719888593915838 0.1979854805685564 0.49835846314973126 0.4154732955877171 -0.28393624819853164 -0.12078844832128793 0.06640176445227318 0.25424649914382547 -0.08177834747582573 
0.4356546482744775 -0.08159440288943694 -0.17756023185487604 -0.46350130000429596 -0.21253162437020756 -0.4436564202460528 -0.13315979978523435 0.36290855878934414 -0.48877801930311565 0.01617047219038583 
-0.2955599004168013 -0.06950675576123123 -0.14134460364966484 0.04156144860301733 0.03216875263065869 0.3649471355627799 0.4165676493077684 -0.48129210617150353 -0.3394605362298331 0.0509417673937768 
-0.3462947637051672 0.45899420761782656 -0.04020318455045878 -0.1318377362482043 0.024932333146387334 0.14704132531339612 -0.31617168199113066 -0.02696372048012694 -0.3338022481568052 -0.1348833071833374 
0.1096187248762852 -0.33355756005813963 0.2519208443217718 -0.20000751167879272 0.5050499151687712 0.08641518837681961 0.17192043596353065 -0.2868168655612523 -0.23719986324377568 -0.47533861155883994 
-0.2741707847317608 -0.38994583595131194 -0.37996216857344617 -0.14582933193573108 -0.4183020867920892 0.3422673067454621 0.3017344157325077 0.3098388930344484 0.4827419630925506 0.2174889755814357 
-0.38536639516157367 -0.36425783245700355 0.09395445859686542 0.3248573404807131 0.4648711297806947 -0.3577029931002159 -0.13388325943219084 -0.3570154999622217 0.2526792844323719 0.30092954771424846 
-0.46029105552321026 -0.11792153367357357 -0.20458480426936235 -0.006467266407720795 -0.3724982431386121 -0.19584378670173222 0.49114283581149776 0.0017572104817512786 0.3607220627593309 0.31725595963462444 
0.2121350996950566 0.31783079818128634 0.30030398808425646 -0.15634571094512817 -0.1970196974686965 0.28955257914005395 -0.3847755527071867 0.2789701025971917 0.12422020100294995 0.05560070808287579 
0.17757360842796874 -0.4145207166603026 0.37055878165752953 0.1505293364945203 0.20647246442178677 -0.006570377756880284 0.1618823700323413 0.19568095950225667 0.18614423394158483 0.2742428998843702 
-0.32507439652502496 -0.2367130530256814 -0.4668189784983161 0.4174204938240857 -0.12725985604870976 0.30005517378183355 -0.17760889494210919 -0.4768352972782278 0.22862259805590465 0.19991284755963334 
-0.23916581113343438 -0.06092736277826075 -0.1253080926894517 0.49123067382484076 0.036190657869181186 0.40591583001795095 -0.27802496812981364 0.3154421528293663 0.11758495171450893 0.056587688329828176 
-0.35878650672711077 0.08470334044886751 0.016121039313549267 -0.15445031946136412 -0.10855291250909756 0.25604837561847876 0.3936101112694527 -0.3123145504402144 0.08446349961210774 0.20800373664679594 
-0.42460462010087174 0.20734373385958454 0.16973590069177122 0.17529728361601246 -0.28583205460063194 -0.25832000073234107 0.44930363099092263 0.22387108931879215 -0.2514804994481013 0.4694483646389198 
0.42527173568105653 -0.40284524492188806 -0.4096658351992398 -0.011802144839151504 0.2415996754359035 0.43278917993248106 0.022421316263529258 -0.12873982908909778 -0.4594582992341602 0.007897114835481542 
-0.3628949079717699 0.37188103915133486 0.33616733581254005 -0.05192115245222013 0.17422645732010605 -0.2567647554507457 -0.11819200141284716 0.1947233816774782 0.12330242065326633 0.31092210824973965 
-0.2153105869413864 0.3673823352099509 0.12174862730475709 0.4920852570902616 0.08453087464139053 -0.46895756219741297 -0.35754801235621486 -0.4579360409857583 -0.42950332126838187 -0.09697410641503225 
-0.2731252141821965 0.07730741506287898 0.2559362497554593 -0.30626737777013596 -0.4566254948811003 0.10425697600186565 0.17841480894191547 -0.009459825353652283 0.23310798089862703 0.18996613882155053 
0.1306594668416316 -0.006832311086240867 -0.26451276837659154 0.2364367497989289 0.1178718151422569 0.39429241166863943 -0.3854197901018519 -0.4218890270541543 0.26299411165990033 -0.383670644518004 
0.026598208141756074 -0.2685258358302183 0.48280619137626685 0.36271985717126376 -0.35063427996597 0.4814281784606386 -0.5013031173282178 -0.3881509291312308 -0.033579914352866516 0.31818943502726227 
0.08963453652640152 0.32375605355865744 0.00832633082548384 -0.1036166932437369 -0.2408256903273318 0.32825641717993737 -0.43948469544636726 0.0351732727465659 -0.37524440833480854 -0.39195974154621915 
-0.3889269928372456 0.3962548896948193 0.20568740075128292 -0.44641791656155533 -0.30549376260427347 0.2346919660117732 0.009335799964367448 0.18773984684068118 0.42936841069826515 0.43863301918943753 
-0.38876833241970477 0.16043360231413845 0.20770811769870626 0.07064379191382172 0.2997866139491289 -0.07710841658136333 0.4047987021497105 -0.49426881829623576 -0.187028719626265 -0.1540426227536838 
0.05248302021364726 0.2682724439891429 0.046801062658262026 0.29754855298630317 -0.46204810792355117 -0.41975380724260214 0.11075542452524659 0.018876292000814483 -0.321292418753053 -0.4473869328815424 
-0.4363337006755816 0.36687989032022794 0.027226238130780657 0.125648568951897 -0.39211935682273047 0.0003404521951653313 0.38167346909073374 0.4819369371258637 -0.36356102924230255 -0.15614848660506478 
