-0.4787925651982496 0.39143963563902023 0.18899539872424528 -0.29630651414316267 0.1116936790857063 0.4330943581238959 0.030205014702960966 -0.16383314026956622 -0.25314011990354873 -0.14734157962890834 
-0.01094311637247131 -0.0828359688656228 -0.12558305081736615 -0.21371806789706796 -0.23966856193462108 0.23532390237303893 -0.12824833387820891 0.2136922654191415 -0.11374039171265012 -0.24520988406524952 
0.18981647541243538 -0.3905696141458904 0.17050706754511422 0.026375793074748438 0.4645048301660682 -0.17838176877942666 -0.3343634804353006 -0.46990645092694827 -0.01802541797726928 0.15290933874169413 
-0.4653014136294157 -0.03944337147247142 0.1605470584813421 -0.031483490227016665 -0.2807393810644667 0.37478086368747054 0.20621039248278747 0.24331692909208485 -0.19070207116357624 -0.36338701423178194 
-0.21104941487983278 0.08308853501193494 0.2165158983761246 0.40340124914446807 -0.4721046750634252 -0.43328278831219824 -0.03249679450809695 0.12397437990861371 -0.24326802592781593 0.025896976134774197 
0.2332385332959498 0.4034212978473388 -0.3865017411656658 -0.27505136995104174 -0.42361847341009107 0.07532770580750192 0.23668918990358667 -0.38333586512824436 0.11552645612596835 0.41787468704673736 
0.21863635180286345 -0.02040596746444756 -0.2942810613586121 -0.4179996091009397 0.10972621407597394 0.45978968030679934 0.26147972828884525 -0.04182321275489931 -0.10533262508346253 -0.37704335778667597 
0.4302064428237089 0.09908132262698166 0.21713110470942365 0.1494641618874949 -0.3214696781749926 0.4354182160858664 -0.16367350966746974 -0.06630050453441161 0.14742605257407293 0.025728486690651087 
0.49389755273489777 -0.015546758201368527 -0.027655854063629248 0.11957346959091808 0.059858959609368045 -0.1420013895924036 0.16549335794955589 -0.4628962285752105 0.4317540906309295 0.3126934225704947 
0.13379733208630007 -0.22974070048996165 0.22885888448496028 0.3043145285647607 0.46282902323532105 0.4505606081521434 -0.17629040588695755 -0.37965149788857244 0.01701189814130233 -0.3702474192599895 
0.1869527549563314 0.07978656812675183 -0.07301294521052255 -0.30389874412772405 -0.21236556147166163 0.22600807143264626 0.18925483787664046 0.02342605567141005 -0.2638702322296784 0.4770772787161165 
-0.4844258459213155 0.0515597626923886 -0.11245472454328624 -0.21119898156421052 0.3506627817679409 0.20233771773550746 0.19119817409197076 0.32367320548863143 -0.2821292896229862 -0.03421955966447093 
-0.372410858409632 -0.18542131203985485 0.18129060813111356 -0.05129612336520546 -0.15535583013648777 -0.13706918409560592 0.08605996731116572 -0.16838400793437483 0.41315438287775486 0.475586881537558 
0.3185400575300367 0.2904178596992862 -0.19761264803955442 -0.09841657768258999 0.1579126958807795 -0.2573404641411097 0.17279392755066475 0.45126418034253846 0.31157733730728493 -0.04207591462680893 
0.32466018446422384 0.3574928152578655 -0.1302607312940986 0.12624989862123506 -0.49177229973268116 -0.059347031544323824 0.03250810859628799 0.4327133350875699 -0.23751858448670912 -0.47345081861373806 
0.491204998729454 0.3643321138726538 0.15297685913570558 -0.20905319208368756 -0.10513565077265115 -0.20303371201422335 -0.44186254479322723 0.4368709125743251 0.23909148939906744 -0.09705960062603691 
0.16170048425217787 0.1461062665881069 0.30442676218045606 0.20288801456368688 -0.0521963307692744 -0.36408259689986117 0.30816851120601696 0.09200196064871641 0.3750270961212605 -0.31393328522086544 
-0.49244973441172357 0.27224643724633113 0.0566167404087205 0.20282171476241861 0.35561534705017667 -0.08188760276169153 -0.18441577626025896 0.003042738786441604 -0.40428839386472304 0.228216228905844 
0.12932889959166716 -0.09168474819362415 0.4814272066247275 0.14878596339751402 -0.07067361460179546 0.21887939084319838 -0.08477199130040221 0.48617629730477574 -0.14097856133787023 0.16876560587819917 
0.4312305395517359 0.48744805594030155 -0.17651948490118247 0.14350493676178108 0.36927526818881606 0.3480173298988067 -0.49404452625363265 0.040723623143534414 0.4100229682301206 -0.18782290369949003 
-0.2585950117332804 -0.4515216493650442 0.3758697036889275 0.1667095095265362 -0.30023267166352735 -0.24321896841485358 0.17936975924796966 0.14696031161743242 -0.13539832931308945 -0.33287903281270725 
-0.440732285783744 0.1745592412929155 0.48298296212482533 -0.17065007516986236 -0.45555885394183543 0.40538871461401754 -0.4096388838979486 0.16801136947411485 -0.23893284595500835 -0.25224322176439196 
-0.012739262426701063 -0.3431736881500407 0.0066263200495444005 -0.28080087332139997 0.03163377052375469 -0.05022810889765869 0.457374304410345 0.17488785570035467 0.17674123260085164 0.12348251836154407 
-0.01959552688157859 0.3421308205181535 -0.06338667867398137 -0.31066653623758766 0.325276962901404 0.4724378798720265 0.28890509285077337 -0.3938237426423363 -0.2687017328656601 0.45560014009147226 
-0.24213078785157024 -0.03055408450589555 -0.029562712720981744 0.4173259788335583 0.1317352688499499 -0.4093040087668264 0.28496177646704995 0.3674141020478198 0.2091010945693268 0.13302925620589198 
0.09232124324945164 -0.30071806384592586 -0.11697641472690279 -0.045085569161892325 -0.26624108100185895 -0.31469684880997817 -0.2511182618065769 -0.4089165925031969 -0.4396307056899763 0.26259332891491355 
0.14813277453159288 -0.07743813817976798 0.4846564229341692 -0.0812617787205716 0.4232758260056973 -0.4342831830925031 -0.17298255149808628 0.46287293945428126 -0.24558110434840186 -0.19662689273815048 
0.16297083985771613 -0.4786406645636452 0.20026423074154184 0.48571724395427235 0.36231550436417836 -0.4896048383830799 -0.27112078661200195 -0.2821715561795158 -0.03653846283963817 0.43383585342383346 
0.0452527704196026 0.20287529245523694 -0.18728724261544463 0.08534048841695308 0.14361710495439686 0.10705783463014618 0.42360468212947305 0.20541136222251147 0.04111168223439517 -0.25520461126835803 
0.35105264864851204 0.009778930542114563 -0.3358534300472473 0.23611564347432284 0.3087277681780435 0.03179073662188758 -0.19560669562680558 0.054618865571664704 0.39946567892324975 0.38912306223052245 
0.4226066990141637 -0.3029642027060712 -0.16288799496044573 0.375872314922917 0.20189989481431736 -0.38319874820930055 -0.40407558299475643 -0.2949336694878954 -0.2722938144381091 -0.4473812996326905 
-0.3377066965259157 -0.11998095077488523 -0.03145622614745157 0.29162920349529725 -0.16828939391564396 -0.08394098487335996 -0.2160213133698367 -0.4507186354129652 -0.17809776740012612 0.05374577954992656 
0.19104492940178103 0.25667489729452164 0.37050880462501495 0.33980993410544336 0.20252601279744586 0.15628278850390456 0.31184013637859764 0.15528214279453662 0.31461976062909247 -0.19782675544997624 
-0.2675870999183613 -0.01620731532657288 0.1149478197536679 -0.48075782688848606 -0.20615298795826895 0.3300174020092726 0.48017679540770364 0.4693506119874904 0.2001365971739451 0.1386385198204552 
0.1567324843024143 0.3488843774654808 -0.3239511185230824 -0.05938402245309272 0.16409147327816037 0.3761277545262131 0.4125061680320084 0.3240600008481474 -0.2702540363452757 0.4372993068380708 
0.2056676305380206 0.31196646639140246 -0.12632050891384372 0.3672828270713759 0.019721658415947987 0.15931089202540233 0.16906138092262765 0.2661732459598865 0.14118319603703894 -0.35758933735086096 
-0.18669270509152439 0.2811529758669266 0.08746601348272705 -0.479210000066109 0.10001325768521568 0.45806124722578473 0.3072386248510346 0.3642159391686087 -0.14365710868409445 -0.35273909980349055 
-0.21901452808081887 -0.0010287244135168186 -0.46496981528111725 -0.3719850560243883 -0.14272411656099593 0.35800525690681684 0.3401576130149528 0.3660541757710143 0.21697901583678647 -0.17080499769774082 
-0.04028194481777772 0.26789596127751364 -0.24689140988345262 -0.2916866694315984 0.3668165377427869 0.19973772849482302 0.09162997926273532 -0.2172725096552103 -0.41902778078739256 -0.4645547616170349 
0.3969903280976879 0.3951596088066748 -0.17470605090384161 0.48082663081551175 0.47511524292526786 -0.30491575281917127 0.19673357978697983 -0.41084405781880107 -0.38788077265691023 -0.14725341583718485 
0.24698062154767678 -0.4268866587963263 -0.3767576631288805 0.4588575829210145 -0.1557786633554563 -0.11195501646024539 -0.3518440344837731 0.497043890230346 -0.495113149767228 -0.1370533757183956 
-0.0715842319706865 0.14441557233758281 -0.28614531734653564 -0.19873339484925098 -0.05743872122252237 -0.4091560842627586 -0.15233878542571103 -0.07855919524796169 0.1390780476134423 -0.4553313756453751 
0.4646969306773381 -0.19673425501354347 0.2734287789045109 -0.039919486075882915 0.1343068352257074 -0.037312926794140444 -0.24392651668969367 -0.07015405995795765 -0.15944149304961908 0.14632136332587453 
-0.31422351350784705 0.464054302679016 -0.45577223713657544 -0.30502796281900096 0.0616718309850747 -0.00032209204015344167 0.10011535478849726 0.08508896666457559 -0.2842972449133206 -0.05986136166248094 
0.19928962086955881 -0.04556011384517832 -0.13698315517187007 0.3025434802188488 0.23556898915882143 0.3408590124385205 0.4412361703970573 -0.023164406604794234 -0.47746248854079243 -0.02974862611896635 
0.12825398289997006 0.2641784972693031 -0.2909304649826445 0.13494666328674293 -0.3687301374169813 0.35976299642034354 0.4962682395523161 0.2744404572818284 0.3459189032342176 -0.4815236001407939 
-0.3168184442365066 -0.013977962807244459 0.1278323357929866 -0.4979228469047512 0.3061474456862137 0.4230100437644877 0.39100227326798986 -0.032003242232971206 -0.2864879096660226 -0.24677745170031437 
