-0.09920653583007949 -0.3671962132912255 -0.4472074933816565 -0.24989799371330793 0.161355750980708 -0.4058251032601494 -0.03220538515562815 0.4879962801365005 0.36444983578357654 0.10378378096977797 
-0.46248086641498093 0.06660002520944189 -0.015397123665714106 -0.3552810177527555 0.40705521016185775 0.22126744736648593 -0.015482778118777218 -0.10576375314161436 -0.12879694388214638 -0.10811450573180816 
-0.48951888488235407 -0.2681805686817554 0.439910708815236 0.3084552392546223 0.47410711601310196 0.09675746069707739 -0.3327708273629688 -0.24136930597374395 0.1417547392036894 0.13435618579379627 
-0.3423268381553635 0.0063064635705059715 0.09327873565001318 0.1130037697928165 0.06947996750568965 -0.3474003318582866 0.2600008041513556 -0.15025659212738543 0.43971377485272367 0.35305612880765275 
-0.26787356642595794 0.048720021102118545 -0.18994710557302796 -0.228559046860814 0.2220125717020574 -0.44987425724949803 -0.4522078156010426 -0.3314358704382738 0.3029446104489656 -0.051063387120126105 
0.014980599286414265 0.497831939880797 0.4092302282564926 -0.054398328139564134 -0.30056776527828566 0.4434656994432482 -0.24265401406081966 0.0012438524631009917 0.30655379016617856 0.20119415525922402 
0.13569924990764437 -0.3958839114068351 -0.46435918566395373 0.031743935319639704 -0.48007413955267775 0.4349804339160246 -0.21145965915659382 -0.19724771804424635 0.08173147837997818 0.2885251766207656 
-0.14422304900706318 -0.3665111364258228 -0.1321561427965614 -0.070427874890989 0.38506689052465737 -0.2254505739561773 -0.0978308492716442 -0.030342142590733867 0.02292985705542039 0.3397094906026755 
-0.2891615565813923 -0.4434817776163992 0.36080800950457226 0.34343128078653795 -0.019541482209355587 -0.3252988382427441 -0.0011976821317584152 0.22338083892834293 -0.47578823885241495 -0.4996410833425363 
-0.2247054253021098 -0.1736139842565756 -0.28398988504628053 -0.0494441685764857 0.07949234315983456 0.15800402459189267 -0.16394264931617597 0.023600659512017397 0.2751614626059591 -0.42512115193034383 
-0.09566366975148725 -0.09589143631681085 -0.23220457614137888 0.376688646434846 -0.12696632046893103 0.25544891585245316 0.15582888512103726 -0.3867230094928519 0.23116463530800965 -0.3506082777108227 
-0.00694878130789286 -0.11989118360057929 -0.2613361448915011 0.2887573886038156 0.2219186734186786 -0.23939576835401302 0.16493116407379574 -0.03630031014720104 -0.038662983675174324 0.36828616664705727 
-0.3333945713675229 -0.14701186827436072 0.3424187873044396 0.28949553446807996 0.4109278383309261 -0.34822339344061576 -0.3274812110776112 -0.451028606183364 0.396010807168587 -0.4250242217950335 
-0.11412761422131562 0.02592677933373633 -0.28062278031977833 0.27824218517129967 -0.05803335429393505 0.20683953251249496 0.4541562149755697 0.16587960989753983 -0.4568615711271793 0.3581154369428157 
-0.27489495216476506 0.17384727470762792 0.13058452286458241 0.24969975391788923 0.4099638239750784 0.029963685362842846 0.30415977655625465 0.39029723987900333 -0.29367390698816415 0.1279028442881577 
-0.13482777983430796 -0.17566773153865345 -0.3133657775112473 0.04119191263379767 0.09740091473088446 -0.2632713884049874 -0.1566253707173384 0.37543678304745565 -0.45178093059383473 -0.12336026919544646 
-0.4583117304154204 0.4433504924677684 -0.36725619728502923 -0.08320765532533304 0.05251881198155483 -0.05362315109774966 -0.2560819746670345 0.12035474346356743 -0.3298945199175906 0.4013756023592619 
0.30925618669932714 -0.49098071489004935 0.2629820000046648 -0.22337808677857357 0.01976633470149534 0.42912483395543083 -0.44415802847290237 0.4371628237479418 0.16937509628459477 0.12799072781981652 
0.05901722412298401 -0.4167303413092385 0.08532069803266877 -0.1989607857331823 -0.16929666118245587 0.43394588368567716 -0.47341840101026694 -0.27963353221074916 0.16761672118179724 -0.06928507193048863 
0.13114106251350727 -0.2628749392236591 -0.1650279712928789 0.23714160602433998 0.39652812878941085 0.34307323925439787 0.054635717359503476 0.26922211380056754 0.08842224883279608 0.03255851730689747 
0.1117496609977469 0.009065798350394382 0.13319832704640303 0.4174659999077223 -0.3745882488630952 -0.4998413425708399 0.498687682690492 -0.34023577159978907 0.19634573285074566 -0.24645273482127505 
0.010479752268606625 0.005114116755281727 -0.40594749408527747 0.22601408598303244 0.13168182403058173 -0.025250400507502557 -0.05834594234462762 0.1295346004497466 0.3590294259134688 0.36867295950955453 
-0.38548794035406575 0.15355294822503165 0.4716898435914765 -0.27828750612457287 -0.06715352229746618 -0.17362919793609327 0.29962997574164496 -0.1798750090740665 0.36378852366328335 0.21105617754814768 
-0.11388836769531298 -0.21105863185995466 0.21937996859512018 -0.33533246193887584 0.16678406134696996 0.1850560266350637 -0.07712647495829766 -0.35692465249386013 0.4295560217434143 0.013354050599907272 
-0.4165615287440353 -0.43500306099030434 -0.35023143785821753 -0.4401695392799708 -0.37318271107975814 0.004119048662056834 0.39699743453229214 0.08976957748731038 0.17442381577975502 -0.054412132595134464 
0.14909263885417928 0.01716781962689752 0.2965174493893861 0.28244166007196775 -0.04428268054423062 -0.3432246555494259 0.27472234030734144 -0.30702154892220657 -0.10656743848420847 -0.002160389002446851 
0.303742727571806 0.4382234522899811 -0.2899226234305964 0.06010594764330863 0.3080132238355861 0.09880775473889167 -0.06776931286040282 -0.34122855889228276 0.0478675394652558 0.3967102917913094 
0.14881966795098195 0.16133616206412615 -0.40123030649138275 -0.41146099993259005 0.18930507137702562 0.33815657276216166 -0.3893367588159117 0.08444459304506764 0.47770144161979955 0.2495670652176537 
-0.15526956272022485 0.26175280892719743 -0.09094179653413607 0.4290422448433828 0.46378536405029797 0.31101028539478903 0.07475545972803302 -0.38673758733013586 -0.12098218397970746 0.47933485606578485 
0.46236617165168714 -0.18107042430111492 0.47597753508017987 -0.22109589489462306 0.4925002470601614 -0.05609507244750648 0.37384544769317074 -0.41447322135115405 -0.34657389220186274 0.3201649874558008 
-0.09986957158766555 -0.17288106172659298 0.23872515052553558 -0.17308350301190537 -0.10244905403371467 0.15901551572352626 0.3448743170252843 0.45675705945743045 0.49088654463219084 0.20818953030091136 
0.2773074275718026 0.3505922780902451 -0.15573524281609818 0.25433609097226684 0.377564257605568 0.048039963589933385 0.01040759940918244 -0.18505879240720885 0.17703255030251172 0.06536330371358509 
-0.4774712174129383 0.3239320054988304 0.2949267488091278 0.35690585631338023 0.08307612987641362 0.2993714916398103 0.15719781176061895 -0.18799227240090674 0.05069672603036597 0.3153910483830374 
-0.07783639249932693 -0.141547878884093 -0.014462698713335232 -0.268336867160317 0.2138556130733034 0.13213783346534025 0.3248436843176456 -0.1858894371137947 -0.21713915853726304 0.42647309473390205 
-0.009076771121394208 0.22187235255276755 0.10680013852382021 0.2677333827077609 -0.15805439481522993 0.39005653544747115 -0.4370963198316799 0.37586183327524 0.19600390118563513 0.26790142729686084 
0.19963435033425347 -0.31591379700540284 -0.036243934038090404 -0.10517518470082651 0.03700688652966748 -0.1610116411956633 -0.49961438419254806 -0.3884648962655672 0.08732746729793536 -0.3310399617648622 
0.13177673563818326 -0.1264699382107076 -0.19492886725420605 -0.40672598023110107 -0.38203951240616635 -0.2713990691575719 -0.47937019015356513 0.34481120437149565 0.1361344005420413 0.08329242844909766 
-0.06269684902306968 0.1964994553396359 -0.15453582255885437 -0.46839615933719086 0.2436254802421117 0.27762222916789 -0.22267907591737887 0.18034600602723483 0.29799740261813257 0.22707274826571966 
-0.054623452594142995 0.06389298377030343 0.061056179631541786 0.06783833161559616 0.23741470785183594 -0.36824349136649187 0.05646401443462609 -0.26307196676993544 0.4761981001193793 0.20541051139850355 
-0.06605546934716557 0.017777989638886497 -0.03877328863795026 -0.17595508728682957 0.4752400452867701 0.39796239430790015 0.01324027673790423 0.4978996311389503 0.11513397685898685 -0.23037743405836106 
-0.46276729862910737 0.1692917636059982 -0.05820015752160992 0.3235183483660892 -0.1346253402486052 0.02081761519484613 -0.3013112801565933 0.4935841298154113 -0.4586323927629554 -0.10841929486969447 
0.0186157884298903 -0.15400527527238445 0.22079043537925297 0.3619336616896192 -0.4320382871843339 0.37601860935584674 -0.26864403781596563 0.3432176876080155 -0.3724683084149237 -0.20654563633520165 
-0.09112433420293975 -0.30389727742401973 -0.38014040464810994 0.45808820370538506 0.47171938712469796 0.1697902969595516 -0.2835723311797951 -0.32242223157953376 -0.15680223418905315 0.14892681273619957 
0.4907036707766309 -0.297946478385289 -0.42890855561102736 0.24004982259142632 0.48438345356110274 0.05638263231066142 -0.3149134917813759 -0.11832715717883963 0.4331696746966842 0.3729065220856678 
-0.168638506628076 -0.38321728177742886 -0.46612997312924126 0.28876159285440606 -0.3188900896783458 0.1531985882634451 -0.27125686840984337 0.02806139950725028 0.00339000170266232 -0.24836964269182324 
0.40609041015014613 -0.4268975849109542 -0.17331159757025758 0.14566777129781902 -0.40645915622200607 0.16128979063744314 0.024601081568161036 -0.4536656923467091 -0.12752155247359126 -0.24605158309950703 
0.019157989873152637 -0.3015584896797265 0.20298967382673494 -0.3595910336259382 -0.44247833155809174 0.2677704743536022 -0.2592233658221857 0.31087482518301807 -0.05343537145797207 0.0943541788315035 
