0.28570344549114485 0.06109770210834367 0.4849499053085822 0.2070827880732388 0.24867103613186142 -0.3425415574862041 0.1105002080064692 -0.24984657219096837 0.13270106542789578 -0.19410283460692043 
0.03269372276462465 -0.19189873760783308 -0.1599151888762606 -0.11732204676925316 -0.17495884498789438 0.2698768532606573 0.46141349961961686 -0.43292633756848253 -0.3431078299990212 0.40126988294488275 
-0.4731044506571142 0.46566609541367227 0.4777458907594771 0.014405677578736455 0.45891846747552845 -0.33558517820573974 0.1634264442276767 -0.4779975005798805 0.1106043310158478 0.033948793340366525 
0.4465094282900172 -0.32875609778776527 0.07883570471279593 0.10930253730627473 0.4771911169952111 0.19930878312340797 0.32703259108698474 -0.06320039579668149 0.14789840334166818 0.42624853824998565 
0.17202324781072548 -0.05393349695936254 0.24459321193578346 -0.00948463339361845 0.09759156460017744 0.0199239287911243 0.1107734484221555 0.37053596911033115 -0.029807288930027563 0.25577283315448973 
-0.018485977044209956 0.3817028360296951 0.2782115531681749 -0.28231279394518105 -0.27094753358112433 -0.13342254003801646 0.4220749894421979 -0.41516472161898565 -0.04977014111949363 -0.3235489024326119 
-0.0076807454460617874 0.16050325907330987 0.4986036763777886 0.48065026632753816 -0.09706527026158951 -0.36919717525717277 0.35386969064979146 0.20367050614247817 0.2598981123126124 -0.31589118002013106 
0.3423255217882518 0.25352211076887854 -0.4549427655092264 -0.14790304808237287 0.1664487719527512 0.39210059649960416 0.01739357911843753 -0.06564178409741972 0.31468932396591176 -0.4170374272110604 
0.14962592814621956 0.045952563173629946 0.14140199418817423 -0.12070672002116511 -0.18459906951972127 0.15779828775024574 0.466028182559042 -0.060527626944881674 -0.020624132763383818 -0.2184673212534617 
0.2846859302885114 0.4562378308110935 -0.1485937192314155 -0.3627090387994323 0.47207300299697763 0.007033699813951411 0.3543660466656464 0.24998899318311507 0.3125607994128694 -0.4024380852045385 
0.2493759166225236 0.3328759748181095 0.3441518254660359 0.24928844687379886 0.29585769379454663 0.39371886868839173 0.2771514287917298 -0.1716309835972675 0.17098703940032073 0.38599882723839474 
-0.03932954433521454 -0.3258864608095057 0.05205348846865001 0.005004437639313076 0.37059871561725044 -0.4555700966238316 -0.3823639779220269 -0.3611889564848645 -0.318715066051485 0.49497316792345697 
0.1650952299461579 -0.4841562961113761 -0.2568291661654008 -0.059330502647592896 -0.07560511820358146 -0.3175190981186071 0.17878184587688473 -0.4060471139790224 0.13534952063802594 0.3328189507519361 
-0.22399275275744746 0.261008494918803 0.3533882302514557 0.13908525814997286 -0.20493321293171374 0.09902882611125566 -0.3650910620594353 -0.4595997703335963 0.050888134691126026 0.39064255159737604 
-0.053542482548166084 -0.3320605501498103 -0.25141361721497135 0.07740648292200242 -0.41413372129870535 0.39501553401716843 0.1461131942786807 -0.39059714007835067 -0.23666327993039338 0.340227863336207 
-0.4647352891896726 -0.2220318999310766 0.42495549430214435 0.2486731863920025 -0.3454652858466473 -0.3665403284894268 0.24387694039142357 -0.3614515075403898 -0.004049741819979384 0.31168410274241026 
0.269447605994093 -0.10003585373847566 0.3355147535782684 0.44264200935112463 -0.2909309280474218 -0.1474936929229802 -0.2987500716059736 -0.11254005205324906 0.2104439855273553 0.04510843857131998 
0.47968999900330894 -0.3150386044442301 -0.16308616711807164 -0.3603527651499141 -0.11715846891247814 0.15951013604532882 -0.46839944880661216 0.06305457105165109 0.4985825885528627 0.30162486624162144 
0.04577016917651928 -0.3464131037204647 -0.2518800185607525 0.3416123240896955 -0.3883771940466622 0.2152931466715887 -0.08555984531744848 0.4229638563235986 0.14002898032343597 0.47233060809029165 
-0.17430627960337491 -0.2839679018947161 0.3804726267197194 -0.1762666160148437 -0.009862639412236624 -0.05914020364554884 0.12930113051248238 0.2893072044587082 0.35988274713236224 -0.10629260313694937 
-0.10105404515727472 0.40994542584647115 0.024984326558374594 -0.30428564517085227 0.32533003206796296 0.1116412369425404 0.3057949408096545 -0.16950472559987634 -0.35986371078944646 0.1107034912022628 
0.4110745870831105 -0.2160974399637556 -0.3183763246408016 -0.27421801594471523 -0.09353398540350398 0.34597178427277014 -0.24952883232529233 0.08040936875247842 -0.06103156813630154 0.06008382751596817 
0.07946618083406318 0.11133951270994379 0.45409753481299214 -0.34799134528743036 -0.38169603870384744 0.10088962703430676 -0.2219737515749856 -0.35432795153511215 0.2963891575672407 -0.44016640122299616 
0.22194819884468087 0.0022579814018560108 0.03284910547666314 -0.19836378987805617 0.147634932190467 -0.09376834657604352 0.34497695601946765 -0.41481272101554567 0.4087455593430633 0.017944774393057018 
0.12864023070667613 -0.4419080440093687 -0.2985587096782751 -0.16760046000557532 -0.31583393278668537 0.3646087484041174 -0.14716162108556383 0.43642478198653206 0.11984698248920544 -0.39416013748687995 
0.174412402019686 -0.06325158158293563 0.37696536036169837 -0.12915399878717354 -0.19652039354739537 -0.31735176148975475 -0.411672422127215 0.054446262476920776 -0.5002433119961726 0.23723453831232894 
0.4556303681653214 0.4168830197299462 0.3481163568083351 -0.37677392358746137 -0.1317254078341132 0.12857262009049936 0.17466304647919567 -0.4270146302100375 0.42954931926660345 -0.18715833669231063 
-0.08945869495302847 0.08816404033724708 -0.14062947715854476 0.4597231568003653 0.4061617920993233 0.12837651801103955 0.15880274164910327 0.3518301130123253 0.05141584744160807 0.06566825439181925 
-0.4460063767684913 -0.4852908286645566 0.12055957884391924 0.4607831133142493 -0.3073588186283402 0.2780431452508188 0.4228544989063877 0.2218203164509288 0.2390978772851708 0.3503643006598722 
0.3788869211925323 0.05676309342875463 0.30009111730304133 0.25023355299704864 -0.12904448222488174 -0.0892135772972415 -0.47713983020913603 -0.08402397816466464 0.1718215876212296 0.36666648091028786 
-0.23588739305120918 -0.02863996266517344 0.48174540547583655 0.353560892332561 0.2016003253655908 -0.19573986404889318 -0.48030000735762723 0.3526204068453833 -0.30949055792459496 0.18118858677138128 
-0.4485062950661362 -0.19029420764182658 -0.4936420089351158 0.13918915935696832 0.4209348897886932 0.2745809167738243 0.0063261558660011406 -0.3222680779660864 0.22305647468343542 0.38004384238353045 
-0.16385870693785398 -0.208803981557382 0.21833792379574052 0.36108337756503955 0.36766928756204403 -0.3065547881987409 0.17803961930808362 -0.3798088640199898 0.08873911487611144 -0.2084143249974938 
-0.12180385507431576 -0.471652861018913 -0.4235253739999754 0.043683220061855016 -0.47725320878430044 -0.475141663556536 0.04020723958356562 -0.31720610309553376 0.3772281811384147 -0.11301263486221572 
-0.17269346040021757 0.445989528294379 -0.12990932548950782 -0.12976240143670972 -0.0682147518295336 -0.22265930131235892 0.18071890428956275 0.29803471758835337 0.4495552523135775 -0.10040737726927682 
0.36222539355036193 -0.3615500214090762 -0.3992143238546764 0.3604857853420765 0.43011290652186956 -0.3592767890419811 -0.4269323704238438 -0.011271278474467423 -0.04795083466867644 0.4708398987922645 
0.4499582025923436 -0.4379492164588309 -0.2878360851117339 -0.2899038383353986 0.3721276112844163 0.4886131715427185 -0.45006254288768943 -0.28334953874448654 0.397433348408584 0.1833791806276629 
-0.35849728554499777 0.3821864154882643 -0.1830445121113026 0.23428693342364806 0.3170689434273766 0.32780886997807956 0.008067439307880172 0.35868952420501826 0.18877099959791524 -0.24168353877242563 
0.06788915987458287 -0.04913469565880989 0.29105912561918823 0.2881371171931174 0.05777693693511268 -0.049539271186284185 -0.20486687267521192 -0.4229518349798649 -0.10898639678961779 -0.2819442784057735 
-0.057843745855262266 0.09709024514240226 -0.07592593456617586 0.4350475589649575 0.23248599552500585 -0.2983632002192631 -0.13333975539889442 -0.45013247824110164 0.11994518778038002 0.24273061722875805 
-0.15972893004815866 0.3708886161427293 -0.4609860669189821 -0.3317818228542055 0.4440525552961864 0.04193287126347481 0.20210794380993088 -0.014194353957549675 -0.3631754487920298 0.09903077324534695 
0.17145023956510233 0.30944032773000796 0.13168069466334797 -0.2867095940752054 -0.2357299911793847 -0.4586175729051487 0.30088027798563016 -0.12894782511214756 -0.31776504563910407 0.13556661797870945 
0.31003281694158236 0.33475096700256324 0.07211461432345645 -0.14868594118832978 -0.4618088013602788 0.0406608617543206 -0.4995632160672375 0.12190834904530978 0.3428963092205106 0.4802469516740496 
-0.28576282314260365 0.0971674777128237 0.09301055109961234 0.2720261606056169 -0.07090842045095026 0.16822596413960025 -0.2781298714878203 -0.4528886135119789 0.060910921474425436 -0.11153122404515009 
-0.04406175534548535 -0.13284948584968434 -0.363716243880598 -0.3537870854642388 -0.1537066133667533 -0.20443103102269 0.4254591388170088 0.28710890188736904 0.39778815664059414 0.41240584521819085 
-0.16822433837777426 -0.3510967712934378 0.26406159172363586 0.1979300121303634 0.45989683318031693 0.3884535749852356 -0.42502451093019833 -0.014882832256607418 0.3066165121445915 0.3029579634807417 
-0.2782070313746902 0.1943833952898391 -0.2758316228334244 0.3224552044962993 -0.32732207941884145 0.2240045773810631 0.03330796139645595 0.23180414650420994 -0.42394540414591986 0.25256590166607024 
