0.44566553149811433 -0.3265029829648461 -0.44747096473011194 -0.20411996719869913 -0.42707844049563765 0.4153501452044077 0.016763040570840305 0.37815897148377403 -0.20979493221367956 0.471973782407106 
-0.29243166943802124 0.05792101896913182 0.48304502298317303 0.2977147867101719 0.4540283468802177 -0.3695132068546181 -0.31511822863188005 -0.18591502937836446 0.4092916268963477 0.2744346443678032 
-0.31477551744101173 0.14458616551106465 -0.0429526486719474 0.1962579560176069 0.34194716428963184 0.41026223242755455 0.465215409652467 -0.38613640488011786 0.1923619299910233 0.35795205520109225 
0.12446284805128467 0.01411087584491533 -0.24626612512527593 -0.49956246985784897 -0.40279517294567063 0.19522725745230704 0.34247783712031576 0.15956079128321712 0.07916905591485263 -0.34783886959551885 
0.4310103631603897 0.09613357428507432 0.13046052807544617 0.1925097077790605 -0.37548334422361407 0.3680539297792851 0.4448186273025328 0.47701531371873634 -0.20880696737595067 -0.45551571757816267 
-0.03223759376158897 -0.44905951402904964 -0.09127453935167862 0.4851550441564618 -0.13076911893820786 -0.39495749575218675 0.4489365009981753 -0.41990273055581673 -0.3218331762518646 0.3604455874159347 
0.15286591933389304 -0.415143112197794 -0.2332809508771565 -0.24378035902519002 -0.020712696162176192 -0.30870461909443847 0.03188017070345972 0.29530345581732165 -0.4917584988125082 -0.2899383230419976 
-0.28823385963632175 -0.4065243178644494 0.19167592994399085 0.2366122084817841 0.3631648494509643 -0.13720320233606365 0.12479209711907913 0.4217625910208801 0.21373085694165084 0.10842179681979536 
-0.2919420272473153 0.13339369247110455 -0.2004324446511606 -0.00854418605825702 -0.24979490006647231 0.07891367236282398 -0.07300539725135058 -0.38034779806075425 0.11655671936051926 -0.030545110062335956 
0.21180503621811364 -0.3980807573356385 -0.3769171035035096 -0.2708566768132964 0.33936175210447717 -0.3380178241205626 -0.30647309039331283 0.09195596826389296 -0.025706567067599218 -0.1757974259383408 
-0.19464422926561317 0.48014816146103007 -0.028807082826625696 -0.3819297141601921 0.23010646660254427 0.2836782834983293 -0.19891298145230318 -0.18193583569298113 -0.3658230577567821 0.4780342592951766 
-0.14399848086298248 0.2898277430633644 0.43691919001925056 -0.0875382128848723 0.08781982313312564 -0.3883504051465823 -0.028407472582248683 0.1740218490935123 0.1890694550124765 -0.06845986303652557 
-0.3084272810897712 0.2605471297937736 -0.42557841936453283 -0.32040702959346923 0.44781595050910056 -0.28560921091919284 0.2775789209033646 0.015236864272560983 0.27877227808395655 -0.43201630949104347 
-0.028786253292171233 0.21301277741489755 -0.08436214410164423 -0.19013357495713193 -0.19826636236104303 -0.015470621328595426 -0.0945546218507072 0.2425789806133515 0.34239944881536083 0.3521781993139378 
-0.1371375074672291 0.0030645553375078095 0.07953504739088067 -0.4440444655529737 0.28819546970203513 -0.274615017576953 -0.2992358772417596 0.10384716118157225 -0.10181543621453028 -0.4934378539107013 
-0.017571482156303362 0.12849767012645283 -0.2847787451742859 -0.29739446197683733 0.1605738172100675 0.024680331324002804 -0.4486433956924716 0.2399099065468029 0.07244557868326042 0.04767872550111946 
-0.4774164517762841 -0.1649121274558557 -0.4430823877047021 0.18702070961619022 0.4075575822392613 -0.44414378564481266 -0.03883920503485362 0.3900284776196925 0.011658359444165167 -0.2104131157395288 
-0.09076345470822728 0.17038598474760547 -0.3826189704055695 -0.30111663599234234 0.04469364400123179 -0.34439852219191414 0.4137774266461521 0.1054041589413236 -0.4384569231374557 -0.44887996193262264 
-0.25088150731506015 -0.3439017681997402 -0.1173390675518302 -0.02663317971512124 0.39240579943203413 0.12624741526450986 0.019141857768712196 -0.03515057269238595 -0.23511031786319309 -0.319827146736131 
0.01897744271195463 0.13206465001822706 -0.05586982614053708 -0.26438873626072656 0.06443614078581987 -0.2120276991818658 -0.46912624592152885 -0.20847091302620327 -0.43536856022127224 0.3611107249607604 
0.35673909816384614 -0.13995159466070956 0.26855820060427305 0.15364421836291586 0.24808747878329596 0.20799548123107675 -0.13481922101171753 0.2322771984899264 -0.4866041703556934 -0.1448477999849288 
0.25080722368226316 -0.17364020109406025 -0.10926492626557958 0.21474526329810606 -0.1619038919052735 0.32316998803992847 0.12482983208652486 -0.04117675273226446 0.06338693386973694 -0.47797683314735356 
-0.10519668927968705 0.37782341248534834 -0.19114879165685408 0.36272277651912016 -0.28648716953974296 0.4605441781349557 -0.22602653097862996 0.16480646708269595 0.4658164885293529 -0.476396936993182 
-0.25742894889396584 -0.010557504706888222 -0.30871386568169734 -0.2534619769609633 -0.2570839804426918 -0.37349175833709924 0.40344571359368536 -0.07466257148822296 -0.08127025975205977 -0.11971269059836234 
-0.40322232990563767 0.4235020301667233 0.04940352476664369 -0.2302390512574187 0.02141021217582684 0.075418497978166 -0.156570901544567 -0.33764960166882374 0.1724960190336931 0.2901761669783136 
-0.4428498847070108 0.2401803384692098 -0.41141044889465384 -0.08935998413570914 -0.0289579980280498 0.44388175474637714 -0.42511235643814455 0.13263439871837024 -0.1360006893277298 0.0050417911073696265 
-0.11577742710425118 -0.46161513516727537 -0.14763036904227586 -0.27235896449247693 0.4991823719669862 -0.46246193992501194 -0.06999240385329451 0.4400294933154942 0.36967451244218463 -0.07439679498354049 
-0.16558638505426712 0.3153322547247173 -0.39050305618859255 0.09794986668515801 0.022106298639802503 -0.1599783258887397 0.021669921620204514 -0.30738123072285645 0.05320480089943889 -0.40002168717866693 
-0.3568900629690264 -0.4764402832642385 0.30942048628016317 -0.05029307231181882 -0.38605979219760456 -0.4213350723288372 -0.32806414351358554 0.4946991692011969 -0.3953030476079262 0.15903935379294606 
0.3826283279914126 0.4584008591066153 0.35532547687406224 -0.3539338035705085 -0.23640377201207796 0.033577614799916944 -0.45302580710326107 -0.14197293336112793 -0.08870113420204134 -0.02117341673684851 
-0.07154424919313115 0.49592771839395017 0.04671026649116358 -0.27415940985742115 -0.3635212270137999 -0.42119583824931256 0.08658589738291249 -0.38877964466356957 0.3238802140446167 0.41084786106004456 
0.1581383353443322 -0.06135674587188533 0.4561638235313274 0.23237360975582042 0.4087165387040068 0.028613578727725044 -0.460753876370518 -0.0028862199460091137 -0.37080582116247685 0.44760155403606305 
0.3702488255057459 -0.2650874212052906 0.3928044483291759 0.26678815056307753 -0.06691264157211965 0.17755080487890318 -0.19087894638765426 -0.02890980047512375 -0.2774194776591228 -0.04380928116377314 
-0.26859886598321087 0.06814708766026387 -0.3810416812669382 0.4713720234856122 0.05519538971470453 -0.4314938742818569 0.4340334130761662 -0.18435561937059905 -0.15515934000646522 0.018240463313007167 
0.09498238125413373 0.28025684747208923 -0.11887052387389851 -0.4475076246087724 -0.33633263473849 0.23876958603956708 0.09791072815024006 -0.3935891185822838 0.05693845917956578 -0.16396372513829371 
-0.24745112787219598 0.027840347122079844 -0.3924920517529629 -0.21242867010064143 -0.3621195387699076 0.39742968950603674 0.4055927782757078 -0.16310202005050695 -0.34028234230600785 0.09069600753039908 
-0.497338852524978 -0.46875118974537744 -0.19829940495527001 0.22225153546959472 0.4745885613631493 -0.015407814511066225 -0.18940070325319652 0.43561694204001733 -0.20842997717878706 0.3684551027647269 
-0.18540905256584628 -0.07903184358351038 -0.12946061150991478 -0.16708487739743982 0.03080449530663759 -0.4030130990752072 -0.012642449118602066 -0.033126043239881955 -0.17193107546230804 0.3947671957488298 
-0.0725188642993804 -0.31198222066118825 -0.3217171724731457 -0.02189613311752777 0.1769463185385073 -0.1652485489834821 0.028840491911838836 -0.46208066410024956 -0.26662982584760664 -0.48878861549022173 
-0.25320863537215593 0.2741743675749477 -0.42199005820698615 -0.2930736267640613 -0.286572922457204 -0.049561521641051584 -0.08791487975831011 -0.38019739929610935 -0.28572625282720376 -0.4332057831421473 
0.49953078166186576 0.18820279072845675 0.22167315677769714 -0.2263226017542266 0.16813947200237417 0.12815274858542905 -0.167754809173039 0.4209681131506228 0.42876279108145887 -0.19232768117256824 
0.48988422340088494 0.053583338066000796 0.08883949446752208 -0.2286055361230688 -0.3057252627460677 -0.25139591631341013 0.3910806592386333 0.08094024117121168 0.1761610290915746 -0.3212137606380281 
0.4004398596481529 0.33104311046881896 -0.2837848210472198 0.3919725230146732 0.23520011657201823 0.3647184210113239 0.17251450748567565 0.3713716882491126 -0.25972725837563393 -0.3386912392452136 
-0.05016693440263188 -0.08210175721642614 0.29069062954033537 0.18758665451825587 -0.26174662785147224 0.05665766205037338 0.35922488656364543 -0.2434897699647877 -0.104359573325462 0.37928280652984997 
0.45944266177670073 0.10709563206639587 -0.41239196875145545 0.47203183602175625 -0.38952772594339985 0.16015448059480977 -0.09756756918011195 -0.3961099867869766 0.03000451927681329 -0.49320132408422235 
-0.09781782369539946 -0.027861665716948716 -0.23829007087465853 -0.04419468439729904 -0.0489293879726158 0.3202645957878949 0.06921264173984895 -0.21904459436262774 0.2768674362515712 0.3033062137905006 
0.45545215859775573 -0.38487056809900183 -0.42389131817256254 0.3953575650141833 -0.21833401441720976 -0.1866255966105465 0.0025150099709130235 0.08044022934334195 0.11456307983715783 -0.06845880828377214 
