-0.06087855551128263 0.3219679966441796 -0.47619673881840713 -0.4170764691448354 0.46038205192988485 0.23670713340852237 -0.2302931500324903 0.1298907499971453 0.3210583600495033 -0.18814556995612203 
0.054247110720807394 -0.27111037458420756 0.27167957932481407 0.13278090293782563 -0.3258342923181543 -0.2285690929096005 -0.1463373958082373 -0.4024443239523305 0.2611224254285955 0.06133501225370374 
-0.10565878388888057 0.46113384523327106 0.23866779931747753 0.1782186338128821 0.06515038776261768 0.1625713080908708 -0.2234641862467108 0.19261798560522134 0.41971859063040806 0.11870872184242783 
0.45110891899410105 0.4188995516589646 -0.3649457409483932 0.37943702219169023 0.4778241412037969 0.17031156962250618 -0.007754865537353324 0.023269729954417052 -0.23017631172121505 0.08485142648097033 
-0.4408936767599949 -0.14261532783234068 0.2770972064875101 -0.04149874732896502 0.3676203872686258 0.2605097341552743 -0.26744903730578673 -0.34128956563255036 0.23655505965976742 -0.24810591709794141 
-0.38570316882991595 0.36543006124842947 -0.3953505618808447 -0.028070193820657563 -0.22768859863259794 0.40274830864312483 -0.05809921653372063 0.3529523541248595 0.21256248616785578 0.4515900099807282 
0.4677782849593617 -0.257509718065432 -0.35515422430664323 0.4850484165975413 0.04823847177853291 -0.3459733839827115 0.318716654394292 -0.042147288750924106 0.15376196618428628 0.35246396624636234 
-0.2560123688147732 -0.00484054690464597 -0.18268931989100734 0.12627080455591222 -0.11985388159488275 -0.4486899161369492 -0.2776394062257306 0.3833928330798384 -0.41878683770897884 0.2586608806512346 
-0.37274658330388855 -0.049682273940205524 -0.40388660420175093 0.03830424431343671 0.3751872506804328 -0.39069651090379975 -0.021580683230466025 -0.2196869937059056 0.1294120199036799 0.20603786545123015 
-0.13577320126383152 -0.2126709530558476 0.3230087728159602 -0.4344478650351179 0.2786940322668984 -0.07720839010674874 0.28784114359967583 0.13500300220402128 0.22722861302105635 0.002255579666019303 
-0.3243617538575721 0.1740325690254492 -0.32594331117106123 0.24824970225753148 -0.32327652052758654 -0.41519201200997163 -0.012107131562220765 -0.12289364199524903 0.27560812748595975 0.29554223687496955 
0.042505290724447344 -0.3540146873480442 0.08881043485568528 0.12488889705679578 -0.2417969383716473 0.3349882405647722 -0.2509272382791573 -0.37641245188708916 0.03845221228690363 0.07249893372139278 
0.025981187161477605 0.3431265705256392 -0.2905256975716285 0.32155553629020617 0.306587232372343 0.2725261209592397 0.42674718784278476 0.07057635879162072 -0.3877945778204069 -0.3645466944885185 
-0.21511849954254575 0.23645094999689864 0.016035928399828158 -0.31226390300811047 -0.4395532684199765 0.24460775394058504 0.11472618719727015 -0.1659922436943431 -0.14216116158260197 -0.14318101732065955 
0.48504803514204275 -0.36303062642888767 -0.33848586065460673 -0.374769339861614 -0.26117197289402994 0.08650067529428823 0.4047674033517562 0.18612345345857154 0.35873221289038904 0.47717693184085963 
0.04925127766812167 -0.2658694923012042 -0.0893094712424349 0.36789425948940385 0.12348764062297447 0.05783748414510707 0.19970109392844082 -0.33201674765141326 0.32363887689685455 -0.38517319892173546 
0.21659367936342097 0.20347689517678758 0.029030051516035948 -0.11929611082701799 -0.3805296274400915 -0.49933705473622886 0.11211250484105767 0.33193879125500875 -0.4290594283627873 0.4266922195626143 
-0.30697697344274255 0.020179391165172037 0.4940647698975288 0.14033326402649848 0.40652703254819517 -0.4399794320084079 -0.066711470363617 -0.24747608346763567 0.18815169649036295 0.15717184315435187 
-0.12478813519149799 -0.4725926365920403 0.1669550757989227 0.4312083280344343 0.3672111669505584 -0.13200092866880617 -0.006055827086814163 -0.20090538194708263 0.19352757760512837 0.49703134151962297 
-0.09517208670477455 0.02817575198069871 -0.3649262004921875 -0.008073536085872092 -0.15694641000440093 0.02732024924803886 -0.1359635802551045 0.2730650228948157 -0.16103781191836805 -0.45267795864963317 
-0.2068618743133715 0.18173698142039205 0.4773898778264751 0.1515003644079031 -0.03412479964400976 -0.09791826454382409 -0.10748645299268486 0.051602415950534546 -0.3336474801119658 -0.02404367041886029 
-0.49234997514930223 -0.014100233585382383 0.2953021646228153 -0.41153403505006414 -0.2783796478128653 0.12659800974551083 -0.12857252743556077 0.12195346280416262 -0.3809033973393644 0.06647639803666001 
0.025311829647801955 0.05695957614439485 0.17099984994384598 0.2285795784628506 0.0762361755934623 -0.2636168800110399 -0.013228062261301984 -0.4290819837839709 -0.03153381652012407 0.42519342561737394 
-0.2704389104549007 -0.3410495905060371 0.3800484936356898 0.42493483762928597 0.03022905809422012 0.03051187245482927 -0.2900659257401892 0.4137742936045313 -0.2682987079660541 0.12573589990489256 
-0.09176584629994393 0.24609568874757962 -0.2860690101126891 -0.1308493740017106 -0.3105143350917842 -0.168619539299637 -0.17815982707620537 0.42412983788800107 -0.058268451985544735 0.010819938167265898 
0.31094457485337923 -0.27100851652910557 0.35653270453528607 0.015921482547148178 -0.07773477691287732 0.40836269075879655 0.1291624863897643 0.4562831126598439 -0.33962044554797294 0.3401761121191588 
0.2218822779017083 0.2859698516769638 -0.3882552289614633 -0.23406076920054555 0.05003136605117418 -0.31252891980704145 0.3107827682011961 0.3816368024122477 0.06100353888806067 0.09071577423355594 
-0.417169234921337 0.20603643863223706 0.43300107158221884 -0.347176986642257 0.019495733655498358 -0.1132887788685539 -0.07515062218910216 -0.2667078486452519 0.26656947195389746 0.3630058794691382 
0.24777963327109945 -0.19955551834820004 -0.3320750827055437 0.1118332688072686 0.39320044868074605 0.04774948502526848 -0.08603688212112866 -0.020148564424182978 -0.30647525121750074 -0.49449250986290877 
0.33125332576571964 -0.23254930579420263 0.4220640633966456 0.1423633494105051 0.19754796385529697 0.35949525690247064 -0.2665345955749124 -0.07847061178307578 0.12715631659168675 -0.12897586064114122 
-0.1320682686595914 -0.2573227408207912 0.41192871486582733 -0.1422013632826547 0.2840255078119851 0.015982490502613033 -0.1746453853971974 -0.493689683520597 0.1922542369320866 0.11341577150017015 
-0.018064861452952104 0.4537562918655281 -0.28897239711133776 -0.33576489769808227 -0.46706355654925263 0.019429345845112425 -0.49716232903798957 0.2608311950584621 -0.12133968163895184 0.04544552147379298 
0.17868451351051315 0.48170093155207516 0.26781292874398527 0.13025306407892048 0.23892843812053807 0.1594629044229986 0.3195271189412166 -0.07964537607413893 0.43949996065603314 0.024505447813639312 
-0.23869104451025142 0.2592818869149363 0.32082426579063317 0.10428047558268574 0.4630865842967837 0.04514667615973904 0.29582530606090457 -0.023085798845839355 -0.2026918260973731 0.08250800527095253 
-0.4460227374751087 0.17829824797862903 0.3873600304372801 0.17306175068704555 -0.1683223782685799 -0.0673450123454103 -0.18815364634656875 0.46500892522961373 0.49102059657118413 0.2841522715070468 
-0.37567128437008707 0.3155240158861118 -0.2579201007005366 0.27710711527193405 0.011667255008662166 0.22973036601916574 -0.17657902312315352 -0.41745199163072827 0.11355486763194471 0.4070639787056624 
0.36989563315909607 -0.4802751345173837 0.469731001745177 0.2645171196790954 0.19957071449930003 -0.2786569370692334 -0.10664798536949929 -0.4647807186620359 -0.019673879569148265 -0.28344620257946956 
0.14512395038057815 -0.042781128264414645 -0.36732930521150375 0.3350363101038894 -0.07180887143370204 0.04493079268878702 0.04136807674139538 -0.42724957601062324 0.08140987851443618 -0.39412188506362006 
0.46515138176407617 0.32868717798019115 -0.05907454975957968 0.03090985076112019 0.470037028831026 -0.28200547274348264 0.2643119262115192 0.018028737397102108 -0.16070896755558892 -0.011033057219268253 
-0.3446945852307738 -0.08162862795801902 0.1344394993502962 0.31945907126349415 0.4557668321475857 0.3581316510739147 0.24606113907876206 -0.2786936179083232 -0.05816834137783477 -0.47158071589251005 
-0.15113141542091355 0.10932761204581737 -0.1528442735930687 0.2857781888149737 -0.26340525127037684 -0.13665016348308884 0.30230406662964926 -0.38858659046982846 -0.11680296857598763 0.40616661279933003 
0.2294579703028017 -0.26553926273183726 0.09610038058786928 0.3330535284868428 0.37018270451400465 0.2282435176553306 -0.41871414412335173 0.4250591342483964 0.23237298897810518 0.19118531263952337 
0.38881534251088945 0.24322357709578968 0.15489335103793833 0.12626143592769024 -0.37212950570925374 0.43448737500234014 0.32777719164025754 -0.45144725193245694 0.4549076422642844 -0.07875304248896275 
0.22409209012234366 -0.4912987935576349 -0.36831400149206395 0.47666416353710933 -0.043879969239546 -0.22421644212979885 0.4486750003799833 -0.34383461249596486 0.4654178999569719 0.4117361062841354 
0.13800111886619748 -0.4286895926774637 -0.42653151038083276 -0.14175399810501094 -0.11103150664056559 0.10089554002543255 0.079527885823155 -0.25440780414333924 0.24054814133810085 0.4014948839967176 
0.1393923127566873 0.2158677292661428 -0.248514247435057 0.1428155640368719 0.21898417110074 -0.42427997526912753 -0.04130005476779344 -0.4195245423929146 0.04681872219256071 0.4400219953286917 
-0.3949002758807093 -0.32884934367877483 0.24589187095070958 0.09542423665229786 -0.4851580469403538 -0.041938323874339406 0.13016512358305463 -0.3977326683183863 0.2098781255315423 -0.013187074498215079 
