-0.3882658984704941 0.2442305699773293 -0.3256788373096368 -0.104082002605464 0.4468415306487212 0.38731757547882156 -0.3643612282220078 -0.44824099687073016 -0.03896300471746938 0.05712513886477546 
0.4555099727864974 0.3101294026220807 -0.0013041303117718188 -0.4025992734911315 0.2671505787427722 -0.19192775003189658 0.4058654877754645 -0.32672861138666287 -0.20934814658553194 -0.08783088415658136 
-0.4475950762831377 -0.15633780498126715 0.09518493700790517 0.27189382010535423 -0.38158269021359137 -0.3309297522805345 -0.24484133077603498 -0.4703409129206027 -0.4779072856273258 -0.11173172758890206 
-0.17654483192779863 -0.2780036090992149 -0.027118400938846193 -0.09446395565502308 -0.3413400674489038 0.06810624507709279 -0.4934729233773433 -0.3292472838871882 0.3266816161964788 -0.3736617215742514 
-0.08825732732242775 -0.08458885139425064 -0.2916617933207235 0.18260051236741198 0.4593611641200686 0.4739572992303725 -0.283095216163794 0.1615129482845042 -0.15845670680337098 -0.14294844176414043 
0.24375523597104132 -0.38587156826795177 -0.3647800168639995 0.39140774680095336 -0.2415954914705587 0.18384738826062563 -0.27970751554530304 -0.31422610342075785 0.25458936664553533 -0.10928758857137488 
0.08521206335913534 -0.2802128778940801 -0.10306908468471132 0.40461330736449164 -0.29727945342683604 0.2994736326421228 0.12323811558675168 -0.14612442421675842 -0.49898883186898213 -0.4014962758484557 
-0.33878597451468584 0.26141428869299443 -0.27371761850526366 0.19110155396665607 -0.25731455111371604 0.3410644650033616 0.14689102362858109 0.08343389097779608 -0.09095079632031222 0.40545298256216167 
-0.4865816914459127 0.38882917798560734 0.1763435876438908 0.38944697167767783 0.364383086904981 0.4872662412622768 0.11220775015321549 0.19454640204634022 -0.49344084469301874 -0.09190351780452954 
0.04687130820358021 -0.49582739709383394 0.48780860269258053 -0.15461090830242952 -0.11732642786446912 -0.4123627642711033 0.4513035941795206 -0.48248000423801884 0.29755617823334557 0.13718749360886995 
0.3651546857425187 -0.06265288417591054 0.09637336149380714 -0.060663078782575916 -0.19099004140090858 -0.452463168882913 -0.40568123707417364 -0.27822448105226033 0.3461854305588052 -0.3415232130719199 
-0.10630435675873379 -0.059815904592339146 -0.1202925165863799 -0.028191403696600347 0.4042366431719833 0.4484975140007271 0.13559243969889762 -0.06101798348775176 0.39966056715129866 0.10452464999187717 
-0.3048747364602691 -0.2833718140772133 0.2948309757791264 0.4436932964103299 0.1257294147130493 -0.09173299050734697 -0.4000240378743883 0.40199627377958264 0.06212872336173694 0.15561738765343186 
-0.4741425059033683 0.3600252986482457 -0.008673020854489677 0.4244896248787006 0.48471854329416575 -0.021460684616367225 0.34785902686039843 -0.22780966613287998 0.27801776280238405 -0.1338273892416597 
0.0146491305476189 -0.2849025852070293 -0.42239161561666716 0.4024190817813821 0.06901745354948502 -0.44585158698571875 0.06562298379173984 0.4865900547600172 -0.35647841069300773 -0.09401086770660719 
0.47021415922722376 0.37337345560309987 0.20984510659255454 0.30830282770838996 0.10024626045607753 0.36321607001915546 0.2417819383627582 0.19973642749895698 -0.41987246457946276 0.016420239734322186 
-0.06265715145625761 -0.09061480445794319 0.3146439601619097 -0.2316501217430573 0.3841460985185935 0.2493682502851531 0.3203394247364866 -0.20196904952437522 -0.04886691413299252 0.1501543416920216 
0.08895003583153101 -0.10883166010124824 0.2801981842472195 -0.21729590770681403 0.03731978699773364 -0.13277493713164165 -0.27188632342863733 -0.38998284852820175 0.09672040254200324 0.18380995561454505 
-0.343713658588571 0.2923766010299686 -0.32896971652901236 0.049426660358435064 -0.3055367366747179 0.29389845218264876 0.4646803778045603 0.49805155469739565 0.26950615504913134 0.2984458334701446 
-0.2545367273691101 -0.3197129720117234 -0.1043714460221051 0.47708666409567446 -0.08313304147318397 -0.26184619458730124 -0.2680872421611577 0.4738342782025069 -0.3424906505409786 0.22164654656730517 
-0.3597201347534517 0.2891771631143804 0.38411790222448305 0.2871206565016367 0.29519912057575187 -0.3464413047764449 0.05815355353979816 -0.08291525529041115 0.43108433134878055 -0.2861647998356142 
-0.46370868971711265 0.265383689475384 -0.4702283074126064 -0.03877774471204965 -0.047222619245065496 0.1092621208362172 -0.06893070067173718 0.04977101541205364 -0.41008074678830164 -0.20384345726602884 
-0.30896926985594064 -0.017953538937964014 0.22729562497526518 -0.36681238678425304 0.005985111951874411 -0.13891935122630522 -0.42414683246983087 0.2952997709695847 0.13412239829879785 -0.46694862527785647 
0.47921936833782885 -0.2918902143910179 -0.38178887235322106 -0.3372129463614387 -0.19804368066098207 -0.4283333225741619 0.4608469800489965 -0.3287387533678143 -0.0025503128336827052 0.2910948985287145 
0.19349515195931177 0.09415182109893772 0.049065455157830506 0.36979421502966964 0.3425415978922808 -0.13685732043621243 -0.1080385684280473 0.25725216625297587 -0.17576322433628824 0.4862501471258871 
0.47330461975888777 0.3515341219451685 -0.46088569303262955 -0.1683204283953941 -0.11291084482424549 0.19935419262808304 -0.37278059973645933 -0.3364236483812803 -0.445001695210991 -0.02551999878838979 
-0.24618109776064032 -0.19583585200378656 -0.010911982169781308 0.18862793433046282 -0.20667023459225375 0.4293948861213807 0.48310633950526866 0.22236510519669217 0.4595831410368809 -0.47810700442706594 
0.44787452087000784 0.24639981761857452 0.2479601070327402 -0.267231803912062 -0.4859900293573277 -0.3340112608048238 -0.49673983467922594 -0.48409323615283495 -0.21456904348324313 0.36212881517559126 
-0.26451694439317053 -0.26057777062456616 -0.11294321707181212 0.3051352851544409 -0.38203723325209393 0.14738852087964416 0.319324264193656 -0.3722387905207563 0.16277079847446557 0.10443737606827469 
-0.4151428891436678 0.0170205422550945 -0.1969440849088572 -0.3660241119741984 0.26145880925385184 0.2165156306357824 -0.14343878638683857 0.06411683336442729 -0.42656908841937463 -0.03172863153866275 
-0.04597308939407607 0.10008025957067163 0.34282512673294996 0.35296136879381146 -0.10408856189280928 -0.14923783071264773 -0.4260245797186687 0.35411531940671104 0.1881344957725823 0.13209466142023785 
0.35023176549200646 0.08134344873025307 0.22438013160458586 0.41827920679917197 0.24235028700724742 0.09884264089162724 0.4651229678596377 0.3483539876327207 0.1134027596258334 0.041567169553911106 
0.3576886320073955 -0.2030447487341012 -0.10947720093146789 0.12397391272409977 0.24395068894894353 -0.049576313575680056 -0.3768869476260142 -0.38988135607923735 0.23388273577319516 -0.40135003676481584 
0.12642712292570382 -0.24874972175014298 0.013267890035973399 0.4767194655059463 0.4269579698495804 0.32118848359054364 -0.09979015242685772 0.3064382263889094 0.4096413011835377 0.2854146129687357 
0.2565804084968296 0.4510803249059984 0.08000041316410533 -0.09484813394041608 0.23928935431183446 -0.4555909011681058 0.13195084321028103 -0.024244175063310457 -0.11015696065864619 -0.41087953010595296 
-0.27740563316474115 0.4421510056070889 0.4135055195588551 -0.30814898369097177 -0.3394887052968216 0.2445774595512159 -0.06993766036166696 -0.4020687636301116 0.4357489917899396 0.45857760737943554 
-0.23847447478724618 -0.2109754695940837 0.32346281564691776 0.3217036851535721 -0.29252875905808073 -0.35098708668805384 0.16620670999162793 -0.0942590693256903 0.3227000958602089 -0.09567709150190955 
0.4762982052476614 0.22563765970957736 0.03877192869700382 0.4464802276034998 0.41956743372792327 0.4129525701700333 0.4232918827737983 -0.49275450683549105 0.1968257064411101 0.17561964378387504 
0.2204511234711831 -0.3812220703617478 -0.2960356066905429 -0.17619724990090635 -0.49239254493686446 -0.32353217811662704 0.2573566276170131 -0.13622398612635034 -0.13936817838342985 -0.18610646734987754 
0.359774005613696 0.11146454247490499 -0.29228528789444624 -0.45152650344488393 0.1110165814915637 -0.38442075789944835 -0.1869367586441133 0.34821657213847157 0.4189030647012203 0.33926689230904017 
0.32120100388550143 0.07610524405707673 0.33961408763747897 -0.34008537035133196 -0.2202364758712662 0.16491645051044307 0.32166442288353464 0.13657123389079748 -0.3722433163235927 -0.44116441222584 
0.04875086003882537 0.44090442058060125 0.2841901588023606 -0.08139172408486921 -0.0413566690678204 -0.127452223767387 0.43374441802710945 0.061815208012559034 -0.26105040769018273 0.19604670497890364 
0.4899205029092468 0.053162567756539714 -0.12795995449193465 -0.19886268463344192 0.06463923253606807 -0.2207296024973373 -0.26587995041560675 -0.38041694805154 0.4706422851005654 -0.15044454630915682 
0.37147815437228116 -0.06156605463339441 0.47561474963278794 -0.40752774912836875 -0.24850881167006156 0.1928636499556966 0.1412825391966502 0.014697262993306042 0.03864414172173511 0.09073748015752633 
-0.22267388465806304 -0.2694335479928848 -0.2637041489768021 -0.3648398128440996 0.422951338356347 -0.14985113699346403 -0.1468357726739304 0.35613311677359305 0.018293919324561276 0.06275498683063209 
-0.208563027940216 -0.282068581630506 0.16579006512128372 -0.25142449365203684 0.07164520015765824 0.46189746263314785 0.3224300121072784 -0.36512131886777416 -0.37008374880966594 0.3383318208937015 
0.23767015621415555 -0.1590782832664356 -0.24093580090230335 -0.44419192973344385 0.31885529088833753 0.33851998371494957 -0.08454030440491031 -0.2627667158320834 0.4078327912472075 -0.31438366217494307 
