-0.12242522447394559 -0.28130452275607876 -0.4967435757324395 -0.016434082044089426 -0.3872353425370648 0.3999017688502038 0.11611601697266817 -0.3235064808943407 -0.421417003239347 -0.33598540498226653 
0.34645637557804587 -0.2835056934553309 -0.35889495037394453 0.23371158623326482 0.007336054349473219 -0.28640358650311626 0.4574043442965573 0.2510572022284099 -0.30135101672147363 0.07012985236754302 
-0.42458102885931776 -0.425078199125079 -0.47286640334446817 -0.07214018885253486 -0.20711062790134302 -0.15235239902884065 -0.3150951459490787 -0.4390751119443491 0.3873873517703761 0.08661773169290572 
0.27028879893308516 0.08991410019234913 -0.207587700665971 -0.2284263010417669 0.1753000626782565 0.4646248237806846 0.27049197286147536 -0.15639183252360772 0.0761675210780627 0.318911396907462 
-0.4141645801332505 -0.14954954552297395 -0.1809725193172806 0.42244172624803883 -0.17104650504597174 -0.14654609579801492 0.09568638311629243 0.3940960279132272 0.20121267639822407 -0.25100652671417084 
-0.3728692212732341 0.26296106944700715 -0.1509921901691902 -0.3907648685282824 -0.2531481091599608 -0.3173522709819552 0.2818943726068138 0.013854542426953942 -0.2029211351334499 0.36192314174126716 
0.31361687557295725 -0.002266226960322748 0.02720084451138327 0.17587276876873426 0.31734673432929916 0.024716818609356817 -0.42622536959381285 0.062455914651968536 -0.25295352741407684 0.007137527495766016 
-0.40221208227962935 -0.45624310536896884 0.2316987651746013 0.2063762672371544 0.07714619358816621 -0.2412946710430729 -0.30286410419497134 -0.36369628741286364 -0.2286397200839717 -0.014764228796636192 
0.00552483084963562 -0.2322579915036903 0.0450409444776928 0.13249019898614822 0.2405814637483107 0.45080438225603126 -0.49054831401572274 -0.17088772480962444 0.237907410905547 0.16775751083366341 
0.4307797295034729 0.049616518415901534 0.14274943259581574 -0.09109793460985038 -0.020625334377661342 -0.4699759551987608 -0.37700804150478895 0.42400908342150234 0.035097969947340824 -0.3225746496354449 
0.15786347697388373 0.42388792091984384 -0.19952133026027669 0.0004535768054246309 0.44332131724301427 0.2656218694836105 0.4092931223022068 0.11553100239026982 0.22158894637108814 -0.07891395642689408 
0.3742934344370727 0.005535834884649862 0.04465980292264258 0.2857795417504196 -0.14097874924837195 -0.485224182054612 -0.17185749536457273 0.2202112130321488 0.3535169052090937 0.03709638851387739 
0.4239015146005975 -0.2470011692509926 -0.03660182076244475 -0.42575391228059634 0.40772875550884863 0.4266024326070714 0.34247089338258335 0.41980181020546453 -0.4089261738580348 0.05530354243924764 
-0.3436255265875479 0.14611187178349744 0.17130924874908385 -0.33038433900003383 0.35619813586585825 -0.08207170098332395 -0.39567154729285137 0.283489746167186 0.2172406027775014 0.10451885508627641 
-0.23465834487115572 -0.2132808786338476 -0.1761874125778842 -0.08454341626855562 -0.03398743326628527 -0.09627736455781905 -0.3802099579943121 0.32390583141245305 0.07238235009858632 -0.3210685354183581 
0.2728935534168823 0.38146806029765173 -0.09496165355663516 0.4915704903273414 -0.16452560006763403 0.2434593032327472 -0.3239648491688942 0.2303377706713099 -0.4763252565982661 0.3545635680512614 
0.36249069750822355 0.08010417640230748 -0.007707303610005438 -0.07010249222156456 -0.2660534095714693 -0.35304253398216223 -0.05959262337101543 0.45087566758825226 0.3897054290232181 0.2896929303858174 
0.19417888397045105 -0.005093423237843229 0.1221387143799277 0.06356117183408526 0.3764776083016998 0.2857515048305555 -0.17375734216049324 -0.15863542852669882 -0.1677718873224674 0.010386633029834209 
-0.4561947763219327 0.2826914354189535 -0.2884420115456741 -0.3261409472141586 -0.3942372568545048 0.32404630515142946 -0.15618873601787403 0.16845560025359488 -0.45955948438523375 0.19006013470092906 
-0.16383935137387715 -0.3292105173408199 -0.2701213526320551 0.4560326943413318 -0.10096689716554796 -0.29516548220707095 0.15282502480546523 0.25973832816365616 0.3322554701299806 -0.3410790196292667 
-0.036735392844458516 -0.2346029444745739 -0.28641844127498767 0.2730406703302735 0.43744702169775657 -0.12168714631893293 0.1348979479672248 -0.021848007162171664 0.3405408770948924 0.20698049783076503 
-0.23927790769471613 -0.29279309185337127 0.30162332596287444 0.1318584616541452 -0.011433626001624236 0.2977723427768924 -0.020114763646049777 -0.3695074816738158 0.30914978263120996 0.47890505921309906 
0.11876546210673691 0.4276750011275957 -0.4041577382048837 -0.264918869564674 0.22272514014079162 0.43590253483681324 -0.07325267251283016 -0.15243766296330172 0.31365991901055024 -0.2915226604706004 
0.09310393818482769 0.3651041864608575 -0.2819754141339395 0.29782261179883274 0.2925926909400526 -0.07866236276992902 0.19764681765708 0.2742854690537672 -0.3054649832373505 0.43503054327595614 
-0.06798783841356656 0.32068685597708296 0.18705165082050798 0.31222327041828385 -0.0638903857709209 -0.34896724732083095 0.29322479159541553 -0.04830836624216242 -0.1838690455126648 -0.17306134892866706 
0.050545845683337975 0.11278849307192851 0.3270403559644251 0.025832882028471654 -0.0552032926096044 0.144714198296547 -0.2627614650409029 -0.3936219864868859 -0.4684385085020657 0.4482249782185369 
-0.3929884675841232 -0.41556485465255544 0.12153908135272251 -0.09665767313017695 0.4688399206405902 -0.29171478333684786 0.28152307474661964 -0.4136559458125338 0.1947585727954869 0.17893510487542155 
0.2483794248523663 0.07793726092437658 -0.426486105047432 0.11810029329778764 -0.374773855930347 -0.20294689870956392 0.26844645767634984 -0.13233640150971845 -0.1270726590058591 0.05600757283068767 
-0.19181033005790676 0.32162478776015696 0.20708315058270807 -0.33010466531656846 0.43919736755511357 -0.13076242544092245 0.3720073413836858 -0.13910436636492682 -0.3242733861892466 -0.2243264248636192 
-0.4882278623746812 -0.20250119392835952 0.23838198071141073 -0.09448384999394642 0.05592361419159119 0.15819214706976492 0.24823697269818654 -0.428128938883223 0.043378539308195616 -0.15942400082513672 
-0.2683198892056401 -0.3571788125387553 0.2571968426209798 0.24761646918718475 -0.3431030245033126 0.30113782322927835 0.30462959978999904 -0.11874174449021493 0.17945974290069833 -0.4944309441448349 
0.34773621691593914 -0.28406313008573275 0.38775874310798064 -0.11558799816319662 0.3421011190275678 0.22490245842524773 -0.07494601653693582 -0.448525326655953 -0.10799807657882908 -0.018773284663976934 
0.045994778385632755 0.09025851920307715 -0.17593027673823705 0.3875086345692257 0.22932185739206015 -0.036813938286683744 -0.41676275186989353 0.1327088467550078 -0.10935618358546466 -0.16127808874665595 
-0.2642515879947262 -0.12883861217815992 -0.1898709354920534 0.3415402930042008 -0.38047935504299885 0.2632023448408868 -0.3065786558899176 -0.13336696313982788 -0.08705613542709216 0.18218505031056265 
-0.35351349709935065 -0.2511083796220572 -0.1274259771085827 0.05378254863561216 -0.02003968942760467 0.02275425242476585 -0.28657816563351496 0.45842553494667804 0.3626246719219383 0.061057110634487925 
-0.2579609802540194 -0.2535301974510567 0.33636215990624657 0.22847090712123327 0.4067700149532026 0.027248347045875376 -0.3052167441651153 -0.1719050361810526 0.49260108995824853 0.3899724833997212 
-0.3540603341325819 0.34377800686561855 -0.1700791626493328 -0.4114692156491693 -0.06909142206256651 -0.30522347961839513 0.39791264744233973 -0.35015868017161905 -0.4692301765274495 -0.3783266058237202 
0.3062545926254099 0.36924393058382937 0.3045062334817881 0.4829757252858998 0.3239928854914273 -0.07419498797637832 -0.20541933260418765 0.49973272894683374 -0.2693276366398287 -0.40364726455455374 
-0.24620827511250684 0.16122376826415388 0.40285387341472007 -0.41127461038557955 -0.09257887393268795 -0.3815442379291715 -0.21957927117039536 -0.37056899464870297 0.47690586202654645 0.14128597862644685 
-0.3478372086059073 -0.21133480860288342 -0.08620015581549076 -0.24457683231132332 0.4440199484738469 -0.39438145798916324 -0.17649192720766768 -0.0701335861366023 0.4811726849541197 0.4293630661781735 
-0.25837802125320003 0.28056789249740416 -0.08045059395346636 -0.12854556439357323 0.2227551524397618 0.407297108564366 -0.2715570461149602 -0.34639630155742046 -0.1012608498610557 0.48844568949423955 
-0.2651712313596742 -0.19511282880663386 -0.08587896127056306 0.05865465722656036 -0.2974613879869074 0.47568605388488056 0.07819629649235238 0.014424194905588841 -0.05764825235523663 0.14822023621600597 
-0.2261061057288316 0.0478974086376891 -0.125118030399478 -0.031208775773149178 -0.08133190597873174 0.38859237234951716 -0.17606710732400332 0.47314330939561955 0.3103241089984705 0.25039536133553353 
0.2883398429659441 -0.12333843270142718 -0.18497268902333147 -0.18617719291194357 -0.14096811579900148 0.14376232505174596 0.1378902538869332 -0.32226307274157545 -0.1645231805003365 -0.16558172986436442 
-0.37660764295354154 0.029424515428711395 -0.07552001780807882 0.42600362621826054 -0.04677016768053143 -0.3906069374234841 -0.14487725265869236 0.12778963922454448 -0.3621675381315032 -0.3449452434457575 
0.4027039380192068 0.09904739844741225 0.06367619503356653 0.22692781834890904 0.34219937739967593 -0.35954662043819247 0.22008511806242798 0.309850384538772 -0.16242675878230967 -0.12768501142572922 
-0.015472723058638517 0.46945856720395734 0.2879119999505512 -0.04426576023067818 -0.3420967224670242 0.25904854440093145 0.4865533881575125 0.4719729514796935 0.07276249705761363 0.08603970733854452 
