0.2293878409451615 0.43900552700264467 0.49738392242843044 -0.19444521924605174 -0.23187219773300996 0.18412245765213228 -0.19189402579875667 0.3610361920999177 -0.216769587102269 -0.2670148689408121 
0.31287538933080017 -0.17199570913066112 0.07277543539178612 -0.3633900024827266 0.2930080923502088 -0.45301378591959457 0.19673892323884815 -0.46536375705084493 -0.34557835867535414 -0.37778632599592926 
-0.08297941252108905 0.20948172556525446 -0.04082524206858918 -0.17378108161267497 0.33868694131398575 -0.12465254241792867 0.34256428575489556 0.3529417990553933 0.4705995187838215 -0.4383460707450935 
-0.172809804371658 -0.0352717479747239 0.11122837163347893 0.07239759116416711 0.11554419871349503 -0.22577423569939437 0.26869546809875405 -0.4676550130341337 -0.0243191692411372 -0.26609091401637164 
0.2556011176142943 -0.40227771646389826 -0.07488402972943839 -0.4344061087087964 -0.14602108427807212 -0.4651714725995793 -0.4499675527549492 -0.45400370536402457 -0.015577737691793816 0.1126134327095392 
-0.2825843177660615 -0.46563987151301023 -0.4033099781258278 0.29940533829810034 -0.38099481742805397 0.43417701818275856 0.3121817876813451 0.1907669426013151 -0.49238657288645704 0.3589051480633353 
-0.3699106067832847 -0.3470671432146124 -0.17208225619960027 0.30003806535149835 0.4231253695390659 0.34109567163280874 0.21920467127970344 0.18773964639791318 -0.2289520588183418 -0.021046488017983478 
-0.11663852300528199 -0.31254997518534633 0.45825280606172625 0.36842921948329355 -0.42868455531797733 0.28686983624935425 -0.36811339671558907 0.16342677056618804 -0.05661837797584868 0.4400672567619206 
-0.10482975228700164 0.06376413247060897 0.13242900262818824 0.37206155085687587 0.08831605030519629 -0.36657325435684507 0.02928668728350703 -0.17869827491016943 0.49408700707999564 -0.34690657964078897 
-0.42342726666590713 -0.46405811247721407 0.07693458498628714 -0.052294691740520816 0.08546226801427292 -0.3102273788253588 0.25863091718284936 0.39107662204749205 -0.031441859026113406 -0.2397077426304165 
-0.48867539586024905 0.005862823630414111 -0.35993710951285274 0.13810076787577574 -0.2441240943612911 0.3955151777207214 0.4095853434305622 -0.36651942086898304 0.1696946886475394 0.22616403635847646 
0.4951064968311306 -0.0021870364184281336 -0.03490930895615088 0.011369345595968278 0.4455469516530408 0.31869580906228034 -0.2354569142139233 -0.31648378714760966 0.43917377309049993 -0.04294449913066082 
-0.4778561012359628 0.23267889350646137 -0.366233255715545 -0.10310391413451897 0.3113865897116356 0.23301445326432843 -0.4627065537051212 -0.01689498030477974 0.4544879553065086 -0.28417268505663273 
0.1248062473330965 0.4067016775840449 -0.4185295672300359 -0.08053205686749193 -0.12403957091035644 -0.46811702038542186 -0.48084819109059407 -0.49574833039155847 -0.37797863902715784 0.05942679438165804 
-0.4247461743883265 0.053311891929717775 0.13456237783828956 -0.12186268525392555 -0.2399450074557204 -0.45624323064936995 0.38696655424094184 -0.27729780274652505 0.23895004709581982 -0.01773926804560231 
0.07566654325367148 -0.04351942850633838 0.49431890197787026 0.10440315332194215 -0.06159396614268376 -0.3697568682425057 -0.14885073715863867 0.3076219218958694 0.022188692969365872 0.26401570238151484 
-0.27580585515665096 -0.22848863895277383 -0.39941991027902546 -0.17992613247070174 -0.08403104139601185 0.22309324630181881 0.013850670112162908 -0.17783327095815424 0.4283118081729379 -0.13161365967448577 
0.41154226434370383 0.33651279534314466 -0.09081969098017337 -0.20620882606275714 0.21287863970274723 -0.03774469169975221 0.46183366222034256 0.1586980842416246 -0.24060602211441456 0.17576010645294787 
0.31954908054314235 -0.19288060998310716 -0.4266818286858877 -0.380347537743402 0.09645415803895563 -0.4165960741296598 -0.1530809170219436 -0.47742748612865665 0.2906383757801584 0.20614356704525977 
-0.05915560575758844 0.053781537716433764 -0.4567397705199702 -0.3318162795156781 -0.35250886652446783 -0.44711523961862515 -0.1614887171138063 0.47799827216625324 0.176505059746944 0.31323222889443914 
-0.15030949478788647 -0.08971215450262987 0.08096131544670594 -0.14567055018642114 -0.35015622005410096 -0.18308382801842224 -0.18783095500886665 -0.190120907331103 0.42926640660873705 0.31694067291978417 
0.07194597493879046 0.047175794148637644 -0.3257141130323343 0.04997016024774576 -0.13973615021490227 -0.03763501295060474 -0.2199476363603654 0.3439352215893547 0.04243738046619077 0.05859858516968035 
-0.023940263891747346 0.4666923685348454 0.2675756097131346 -0.163326740513293 -0.15126164487567473 0.2601673267371299 0.21602903438107085 0.3164760062818951 0.46853128503018165 -0.12655014706184756 
0.12803180103862863 0.10862369246006043 -0.14308910993401516 -0.36787350553978126 0.4255110459910954 0.4547896738955406 0.37515883123077204 0.3508551005050533 -0.2707375124798326 -0.005408866131506813 
0.25062802775062654 0.17526659507368095 -0.4061995372752658 -0.2551910576934007 -0.4135394376345502 -0.05192969352242309 0.19253145166430616 -0.010526593056763381 0.2619937082651784 -0.13125809428817134 
-0.13667192002290518 -0.1328259793092883 -0.427799395195782 -0.006152424291480009 0.0776876089881958 0.39404814896189855 0.24957120881237965 -0.1832146628091389 -0.3946344057985936 0.45849080858453445 
0.08838452170226337 0.3859275197975106 -0.36030598106329514 -0.003304558343664243 0.4309816035755362 0.3202361630350692 -0.4253135582830149 -0.42381912217233 0.24985405231981783 0.4231370152640777 
-0.35735811862942096 -0.07048679623501741 0.15576679057624912 -0.09911777194209781 0.10372190907906434 0.030002064193599912 0.015360101823095919 0.47431905769450755 -0.22156189277015284 0.17165984956267796 
0.3674379326766086 0.25611030538040575 0.0528907395094639 -0.06176460557402066 0.2826835075400297 0.35637572034503867 0.398248567717244 0.29986366409392545 0.13992870788009415 -0.03629602789604042 
-0.2122640720396558 -0.030714894270621514 0.09471595995218747 0.3459927596429134 0.3247443816914551 0.2436075121907545 -0.43969429388672643 0.27680966594870166 0.3830194172425351 0.33041158394617565 
0.3142823028594653 0.11087487818116923 0.4208956598893071 -0.20230733813130305 0.18551346897219664 0.29960400571181645 -0.24900247018182886 -0.26562091105604035 0.025872282084041354 -0.027749569692429032 
-0.07342039228657232 0.3570089236643619 0.11205409175719588 0.018177418443776364 0.05744989327651571 -0.06360332286668188 0.31595899043966846 -0.2780783737939393 0.15562893148878257 0.23937711958210167 
0.3199130180257742 -0.34236117397862775 0.2768287161216502 -0.06519785075870335 0.3136944040877846 0.3627775999024177 0.32134059329452125 -0.49693187671584005 0.4615489575742355 -0.2810165304154172 
-0.47185787555658576 0.2261173498058837 -0.08619622036541806 0.1740465343768355 0.1499965627415476 -0.1725990421804302 0.11490560190141218 0.25427136304131703 0.2285143931127892 -0.2737223358390821 
-0.36447558316549705 0.13614988841041364 -0.15968556549367172 0.19106808395403477 -0.4779033454753432 -0.4745372037560393 -0.36862246406139565 -0.19221375156353196 0.30643370956885724 -0.36035578207474417 
0.12140516216410302 -0.38284893590908503 -0.3386669589761992 -0.044618850293655046 0.029092350043321898 -0.07548659669172651 -0.2642694578903163 0.28523039089218427 -0.44555649725496277 -0.3615847962790995 
-0.2942864916634839 -0.3226938413707127 0.34529364563779963 -0.4101014421823339 -0.1940651723131596 0.12507155729081465 0.3610843150829188 0.17122173819196676 -0.4187658091481928 0.22578668304626845 
-0.4136001890210378 -0.13794906897239959 0.095348472587043 -0.46263283077972933 0.30406666631679696 -0.06982255605800052 -0.13052418368965912 -0.12490268041094521 0.478332899253469 -0.2711559535857562 
0.48507188449960975 -0.33621871636924494 0.39206062600265235 0.27601011365725553 0.23440386409934702 0.23998381735112587 -0.41023922872189933 0.4558376479797341 0.20555329001012548 0.04888639979207659 
-0.29069932351799505 0.42487672330964565 0.3122108425762031 -0.09049221363934845 0.49631981047330065 0.22793163473335654 -0.002606226361479966 -0.35543900034381065 -0.2870201232439994 -0.13434159146280164 
0.06281963230994529 0.0046567691684910525 0.21511887018467385 0.11535578579571622 -0.48280967419540977 0.09286869157995753 0.12759337422030842 -0.49427720306345796 0.3901130488782605 0.37234623934783084 
0.16621820901336617 -0.3038453225446617 0.15734290061171274 -0.31773667128247013 -0.11443574721624518 0.3340232072095854 0.2524190162102258 -0.2107852860941935 -0.28638453339982184 0.494636007266208 
0.06682840843685434 0.2744995676960892 0.251624099982276 -0.10287721317798748 0.16558696973439557 -0.30055384420053965 -0.1804464310456788 -0.17392480664761745 -0.31500837243654944 -0.27563591977015267 
0.10310931552087142 0.47096326806119615 0.49368507831112074 -0.13018343728705392 -0.10145243942188494 -0.31544259590918605 0.32534629711537777 0.11683031245334664 -0.0955169366715052 0.40177847659817434 
0.42799713607752554 -0.36779054246989235 0.4600222973461113 0.1561961689425369 -0.1430494315149087 0.3090683421566725 -0.3548831141457336 -0.16406768236332486 0.4430048375722923 -0.3423621155570214 
0.10638275775077587 0.21236632453140541 -0.4704535804743201 0.011255073995507377 0.10487253548224373 0.1757795722440778 -0.416300127636608 -0.4690418424456544 0.2934682784605659 -0.36226536048212493 
0.1203266089786955 0.19816846659185705 0.31491901131972555 0.09322165675890422 0.4516948737716034 0.17500436915203238 -0.25781403842446904 -0.06185822355185394 -0.068037487225228 -0.04543817587262808 
