0.27395047389353383 -0.24750812318344054 -0.48678355278831664 -0.12298823601851065 -0.14196007307996902 0.0043313563008944645 -0.011198206576376546 0.21452208383666965 0.004405426590069207 0.1739865003951129 
0.1606239270407971 0.3265934191065571 0.21941956322454528 -0.09669426490277354 -0.3974119963192037 -0.3095869010227904 -0.3285745063226172 0.012465876396828269 0.011681209820799563 -0.05798441438128101 
-0.391305660233925 -0.1626692900592536 -0.36567632611881695 0.17380038849346147 0.15554096692605482 0.32748501675894476 -0.3219731484336669 0.0835185382053011 0.058326756237269295 -0.23022547404777768 
-0.21698909869464691 -0.17509374880200246 0.3143165893932716 -0.18638793146475183 -0.12466994140175953 -0.2948400383915327 -0.2861438053589204 -0.4298417344986063 0.07458358603276954 -0.07795324412472351 
-0.2830687245511099 0.28598010801107104 -0.015374470136355465 -0.10640098946005765 0.021920405389768513 0.12140817872665487 0.2409010640083342 -0.16748227789624737 -0.17332423167208036 -0.36057766322963697 
-0.18305429988099686 0.056075614000357654 -0.11292120931342908 -0.4492139020191853 0.46694145318810176 0.37759114895844903 -0.42819410609647723 0.4712073885514678 -0.08288225656746784 -0.3080420724762106 
0.0818317722208497 0.19246822027837684 0.09904232383607603 -0.12663624723909273 0.27601830546247597 0.22105422305916733 -0.09287326998179057 -0.16504468387481652 -0.2863284408994249 0.2914605401970862 
-0.37422953161966976 -0.41253375192644903 -0.06819143292585617 0.37419396336212063 0.18338727951202927 -0.32755137536148615 -0.4473670397018119 0.429119077574429 0.22446555266790147 -0.07560423228135371 
-0.01623060251201447 -0.2726684427356857 -0.34733382207415897 -0.21618822279018368 0.3115527926685685 -0.05490100531975384 0.2959039697262793 0.36247908204772794 0.47177516211706527 -0.1336553352738462 
0.47330500611057313 -0.33411949294774657 0.21956387258982468 -0.32907122807651634 -0.19177299233717415 -0.17072688406774184 0.0010868245697028822 0.13785696895139565 -0.053745181435642775 -0.14509068618081178 
0.2225051169553982 -0.38469453783788576 -0.2997443240205989 0.0981441011602761 0.454349215489663 -0.07205099619671793 0.3035896507231335 0.37480723354636947 -0.02079704806143244 0.31532127222473444 
0.49343191678093395 -0.1901109578392443 0.06945712889331263 0.1333183638662915 0.4980400858089158 -0.4698293335887852 0.08642798051974367 -0.18952829726409695 -0.05356222606377883 -0.3898163041007914 
-0.06882166004202302 -0.42945249832384225 0.00048532018103367364 -0.053726725569389795 -0.2277506586812296 -0.44244440401203083 -0.18961046305821458 -0.23388858864021386 -0.03536865164567691 0.15107037581776567 
-0.400192950543806 0.4915443653209957 -0.1961646380894853 -0.3611086246287617 0.13265101259576037 -0.2013715273962242 0.07185730782184888 0.03417489479595114 0.25004190760097117 0.26590193384997163 
-0.041356802705875245 -0.268281371934208 0.2652653059850598 -0.4337310494206565 0.11553449861518442 0.32008004878097185 -0.12222569443275973 0.016463029710573836 -0.038889526920274906 -0.47047551248685376 
-0.4381920573832883 0.45687528010722334 -0.4747352156283948 -0.053615144213140675 -0.13898922147881043 -0.4280282935419421 0.054100879179905755 -0.021402663014304255 0.21786830480147032 -0.3181354766070555 
-0.33530043267793325 0.3284680790521782 -0.2642204443131943 0.32539616603932203 -0.04458395374332984 -0.13472195899431663 0.17844615706591674 -0.3937690312426122 0.3283977553717318 0.16438752531119807 
0.14973252707717163 -0.09025949471332889 -0.04430730156221551 0.46847396379309525 0.3830602437637101 0.46735570272304294 -0.0019567808431859212 0.4306622551314544 -0.40210248232991225 -0.47309942123647314 
0.22002992312096503 -0.4907411831014822 0.4911228426114011 0.29526419829254213 -0.46973987631082464 0.467200603519508 0.05940423109113356 0.015766937247598055 0.14418753014524685 0.32527563111932095 
-0.2912922990264239 -0.43186902620182627 -0.11494149879976087 -0.3762117259529056 0.3908194692441995 -0.11667824504749146 -0.19822774835983756 0.271127770556222 -0.18586158935310199 0.2912028837437203 
-0.4211314251884605 -0.3840842802866739 -0.05599866444415415 0.36521224681857256 -0.21410178225970208 -0.06075107565876796 -0.36671135955050393 0.14780906799100363 -0.47158958531138906 0.0038382942401829125 
0.18973123489011154 0.09055036548312562 -0.05073998822608675 0.4755184242912033 0.3635997912740373 0.12223782979783489 -0.3349318181775528 -0.4234078475102817 0.15725728710020512 0.02856350178656026 
-0.4461627555137968 0.2771265678036537 0.37376797429438524 0.0784939050805169 -0.4086069543875042 -0.24116882232712283 -0.1433767488486224 -0.1059824296094353 0.03085537489660943 0.17879590154040187 
-0.17982595269153834 -0.2538831242794344 -0.3649332287140029 -0.05241040578217101 -0.3119440761763776 0.35028416553162894 0.07723032179352245 -0.22584136459242143 0.15826311619670083 0.27467643092080646 
0.4406284085032864 -0.4426790749591748 0.37145634777008224 0.08910925602651944 -0.25083264405754585 -0.2468372410429565 -0.16516477764162804 0.24533573475667986 0.12135754770303242 0.4350236212731952 
-0.16011010929634462 0.15507508516596086 0.2310876751748232 -0.022942372329357797 -0.4572430552362002 0.012361517068977031 -0.490895487468654 0.15566471940233856 0.10980035918060913 -0.33645139686867426 
-0.1998711874949632 -0.34618855110647817 0.2378175503391893 -0.189042643238826 0.020775473728396908 0.3130201560313701 -0.01032671924438374 -0.4442869169578058 -0.49789395383470764 0.06294012037284326 
-0.199340977466829 -0.002465766626099146 -0.38469225211404307 -0.4723424644148443 0.43614463813332305 -0.14150928021396963 -0.01658565761766236 0.44402399136257165 0.4782813644924841 -0.1523720151945652 
-0.12172805352222806 -0.2688871596150744 0.4406705693737431 -0.007325433973269862 -0.1679008591889199 -0.06383046394152249 0.18929595346806408 -0.1013081318340801 0.44552973712139005 0.2634734944363916 
-0.1956812294964754 0.496213216495624 -0.05886698150138596 -0.36987416814914265 -0.06664722283283986 0.06659183087967364 0.29575649841300483 0.14750638188824788 -0.38603726974524444 0.4029318789013516 
-0.03680326716156482 0.18454842576821126 0.4719238149467908 -0.200159054223925 0.44925271436937403 0.35797094232997 -0.4063152069402453 0.35452147047228155 0.31040719001799194 0.35464311569519497 
0.38426227192527085 -0.14788219233224006 0.10568402385893706 0.16218827566726648 -0.19947521243765087 -0.2397930971517975 0.26871987210231335 -0.4828351687213846 0.11170588289753103 -0.4904360125195484 
0.4901539155020973 -0.2460918288261484 -0.19764620315033812 -0.06824041021887277 0.4027472778433789 0.4843016554165147 0.43185772303597497 -0.34819089989171564 -0.45106178429007593 0.3649167304339987 
-0.0602173821574175 0.3303402457670351 0.1534672660589356 -0.28595365007110446 -0.49260280705637954 0.18503519041284175 -0.22159334256799199 0.26374423915290485 -0.3889860158984666 -0.08865151542913534 
0.11846080217034333 0.12593134773075085 -0.00876532460431667 0.029926026684468886 -0.06753165346339376 -0.4182813442467016 -0.25698347717743136 -0.46791839156311976 -0.04847489358278086 -0.1116878045546371 
0.3154702016213445 -0.3732376052430825 -0.34775697090741564 -0.4041493970630059 0.07485608713804749 -0.2869565770640466 -0.28977388583110464 0.1979498160079852 -0.003188997943377275 0.1217488166301772 
-0.35009089756779477 0.39963943719602585 -0.49521110795693457 -0.33046010731924136 0.43572888362560047 -0.3396874543819685 0.4691611769394333 -0.0486533956942673 -0.12290721702553381 -0.35235670353210075 
-0.24507462245814735 0.003966282494584411 0.05640578633117027 -0.20704460891083865 -0.42730801455556655 -0.3400760143670414 0.5043635217350421 0.49630601392045887 0.31228489723550085 0.05472561973779039 
0.4352486996113062 -0.2699041473487138 0.10209111441212392 -0.03250463623071897 -0.006084878434052625 0.4209072795599211 0.108515157061849 0.0968750034057344 0.31268403542766376 -0.4258488011163721 
0.32567621272177316 -0.36332815825117615 0.46939657100017096 0.248367366571795 0.42869519542652407 -0.2939914292694752 -0.4676847842568219 -0.1791383363165779 0.42386845134441975 0.10258641221575665 
-0.49498698544039416 0.35497512753202165 -0.42906737489226254 -0.4394012509075372 0.01938821129752201 -0.4362224010680054 0.3963056317236865 -0.45126120885085896 -0.28744584432519454 0.03049391959454399 
0.36664979485124893 -0.43590004350022915 -0.2653722195354807 0.2912270027511657 0.49423246574049723 -0.42851972237578145 -0.46413578315751175 -0.43133630178136434 -0.4393179110761071 0.3831115727309927 
0.15465063231469645 0.4323372820217656 0.17167162085793453 0.08662352042340593 0.19463620865153175 0.19283790031326442 0.30703235583335475 0.1744612423398546 0.17826047646357635 0.3245675075224618 
0.36314748165052374 0.3977641371707386 -0.31980098954402547 -0.2422771488676918 -0.2154902732464191 0.3680695820657318 -0.4657441400112111 -0.12374378748299046 -0.011714586785928087 0.23095254105302088 
0.18751770159058068 -0.1832232043854396 0.2829650812759673 0.1451766342492698 0.3827717666913722 0.4469925023090425 0.108047742668074 0.252498761632886 0.3166357377428661 -0.07126774754565665 
-0.05823825095953277 -0.16024645570706594 -0.36055183688556974 -0.41806451916724163 -0.3947356630243213 -0.4269521119334914 0.22648343277354133 0.01081556035912068 -0.16723522699113708 -0.19690497833861878 
0.44934612217056 -0.26012161318180194 -0.4753928535171294 -0.057577515980012504 -0.3008874595374916 0.15115438148926993 -0.15459460559064872 0.3935950236692767 0.18434538969562067 -0.3850124627362086 
